{"type":"RGBA","layers":[{"preprocessing":"inputMix0","size":64,"nBlurPass":1,"varianceMin":0.05,"blurKernelSizePx":5,"gain":1.1,"type":"input","index":0,"mask":null,"tilt":0,"isNormalized":false,"overlap":0,"customInputShader":false,"isLinear":true},{"size":64,"sparsity":6,"activation":"arctan2","connectivity":{"fromLayerSize":64,"toLayerSize":64,"toSparsity":6,"weights":{"isPot":false,"width":12,"isFloat":true,"data":[3.297717332839966,0.07994810491800308,7.695326805114746,-0.879845142364502,-4.804500102996826,0.15703116357326508,6.867889881134033,-1.270274043083191,-15.101508140563965,0.28946974873542786,6.428588390350342,-2.239208698272705,-10.505829811096191,-0.009093706496059895,7.317168712615967,-2.491663694381714,-11.120991706848145,-0.02000204473733902,6.490035533905029,-2.8100898265838623,-9.18623161315918,-0.30049118399620056,6.667730808258057,-2.7949635982513428,-16.106164932250977,0.04013645276427269,0.3724203407764435,6.091919422149658,-3.974656343460083,0.2628282308578491,-0.19602170586585999,6.888974189758301,6.915607452392578,0.526917040348053,-0.17845548689365387,7.292296886444092,-28.2571964263916,0.3154253661632538,0.21907134354114532,6.558218955993652,-25.792699813842773,0.1102360412478447,0.2745263874530792,5.434815883636475,-30.884380340576172,-0.030299168080091476,-0.15887264907360077,5.062009334564209,-2.317969560623169,-0.04074539616703987,4.9621052742004395,-3.0735974311828613,-10.029138565063477,0.10797201842069626,4.286448001861572,-4.315433979034424,-20.078044891357422,0.3170216381549835,4.169958114624023,-5.492232799530029,-14.625906944274902,0.10049497336149216,4.914103984832764,-5.345816135406494,-14.950857162475586,0.11216466873884201,4.287655830383301,-5.3592753410339355,-12.656876564025879,-0.022458449006080627,4.6172404289245605,-4.730858325958252,-20.448591232299805,0.11274490505456924,-0.23320318758487701,5.628165245056152,-8.624587059020996,-0.029400190338492393,-0.5670921206474304,6.210235118865967,2.072765350341797,0.5740876197814941,-0.7117605209350586,6.609780788421631,-33.172401428222656,0.3952818810939789,-0.23342320322990417,6.253373146057129,-30.7061824798584,0.4229744076728821,-0.020211772993206978,5.86964225769043,-35.5694465637207,0.2337426096200943,-0.13621261715888977,6.271315097808838,-9.1702241897583,-0.042191874235868454,1.1633169651031494,-3.7829015254974365,-16.471006393432617,0.18564189970493317,0.65851891040802,-4.5563225746154785,-25.834184646606445,0.34668949246406555,0.46085500717163086,-5.512350082397461,-20.00815200805664,0.20128124952316284,1.4519387483596802,-5.5430073738098145,-19.897876739501953,0.08172127604484558,1.1725674867630005,-5.480356693267822,-17.267396926879883,-0.0028488554526120424,2.0260040760040283,-5.336029529571533,-25.792037963867188,-0.04982088878750801,0.7037270665168762,1.6825076341629028,-14.702937126159668,0.22367748618125916,0.3863750994205475,2.7803046703338623,-4.543787002563477,0.6507773995399475,0.21443645656108856,2.942105531692505,-39.56610107421875,0.142507866024971,0.5719624757766724,2.632962465286255,-37.13852310180664,0.24335293471813202,0.6977699398994446,2.1558094024658203,-41.91871643066406,0.026382416486740112,0.4602726101875305,2.293149471282959,-15.821717262268066,0.5730299949645996,-0.16507840156555176,-3.2389349937438965,-22.456989288330078,0.7646902203559875,-0.7380580306053162,-3.560612678527832,-30.92613983154297,0.8603193759918213,-0.6988086700439453,-3.502007007598877,-24.635936737060547,0.6278831362724304,0.3261241018772125,-2.5250301361083984,-24.282978057861328,0.6075019240379333,0.366775780916214,-2.1114752292633057,-21.2316837310791,0.6852970123291016,1.0740138292312622,-1.914779543876648,-29.813743591308594,-0.2145792692899704,0.6676188707351685,-0.791111946105957,-19.826936721801758,-0.015789102762937546,0.3213944137096405,0.4682922065258026,-10.340126037597656,0.36051657795906067,0.5083156824111938,0.7538768649101257,-44.09381866455078,-0.0038239150308072567,0.6209110021591187,0.6215766072273254,-42.23292541503906,0.005024074576795101,0.7564656138420105,0.4205334186553955,-47.15892028808594,-0.2902635633945465,0.5047914981842041,0.33471915125846863,-19.782888412475586,0.05667534098029137,-2.2284934520721436,1.3467135429382324,-25.895465850830078,0.06409149616956711,-2.5293147563934326,0.5289081931114197,-33.80555725097656,0.18034487962722778,-2.975633382797241,0.4923458993434906,-27.1638240814209,-0.10371311753988266,-1.3118553161621094,1.2660784721374512,-26.33891487121582,-0.007215208373963833,-1.0701661109924316,1.9912567138671875,-22.989421844482422,-0.08346958458423615,-0.7231847047805786,2.2559797763824463,-29.60592269897461,-0.3922053277492523,-0.6441002488136292,0.27985307574272156,-19.997835159301758,-0.18006040155887604,-1.1861673593521118,0.9944912195205688,-11.09408950805664,0.13515284657478333,-0.9687168598175049,0.9647659063339233,-45.37653350830078,-0.2172025740146637,-0.4291279911994934,0.3429432213306427,-43.841270446777344,-0.14383646845817566,-0.3107732832431793,-0.5146554708480835,-48.766475677490234,-0.4171003997325897,-0.47782790660858154,-0.5978420972824097,-24.40171241760254,-0.850116491317749,0.09501286596059799,2.379075765609741,-30.557058334350586,-0.4735953211784363,-0.47951605916023254,1.5343215465545654,-38.03617858886719,-0.4098169505596161,-1.302949070930481,1.4375699758529663,-31.115083694458008,-0.3509869873523712,-0.19664591550827026,2.129784345626831,-30.125179290771484,-0.3313901722431183,-0.009766271337866783,2.443556308746338,-26.39942741394043,-0.39637020230293274,0.3105209171772003,2.032212972640991,-31.097068786621094,-0.28602781891822815,-0.09585479646921158,0.8808183073997498,-21.703847885131836,-0.14583219587802887,-0.41198617219924927,1.9644914865493774,-13.352302551269531,0.18523161113262177,-0.27367129921913147,2.259417772293091,-46.91325759887695,0.047246500849723816,0.13865821063518524,1.4118397235870361,-45.418846130371094,-0.03169598430395126,0.1639295369386673,0.39210814237594604,-50.563148498535156,-0.16639773547649384,-0.12524881958961487,-0.22480647265911102,32.68498229980469,-0.009518005885183811,-0.07178878039121628,-2.3599705696105957,23.994245529174805,0.14009658992290497,-0.09543568640947342,-2.537203311920166,14.396622657775879,0.12664632499217987,-0.32231342792510986,-1.6147671937942505,24.5203857421875,-0.025325274094939232,-0.37512296438217163,-1.8640903234481812,23.74001693725586,-0.06937071681022644,-0.30209001898765564,-1.516437292098999,21.78802490234375,-0.10809563100337982,-0.4549877643585205,-2.4885451793670654,2.8655378818511963,0.11620262265205383,0.6858479380607605,-0.08836878836154938,12.748016357421875,-0.030488213524222374,0.7169040441513062,-0.10154461860656738,22.26751708984375,-0.027378324419260025,0.5787240266799927,-0.1676567941904068,-14.975381851196289,0.04662951081991196,0.6113478541374207,-0.06794394552707672,-13.91087532043457,-0.008179159834980965,0.31457459926605225,0.020181365311145782,-24.642562866210938,-0.021420884877443314,0.45622682571411133,-0.09810050576925278,31.770519256591797,-0.216291606426239,-0.19257304072380066,-0.49259787797927856,23.71270179748535,0.0016438494203612208,-0.3005707859992981,-0.456535279750824,14.343560218811035,0.07632102072238922,-0.3194634020328522,0.3048407733440399,25.1126651763916,-0.07637429237365723,-0.27708348631858826,-0.18317744135856628,24.517179489135742,-0.022547738626599312,-0.3367701470851898,-0.5247126817703247,22.84583854675293,0.11882983148097992,-0.43482089042663574,-1.269381046295166,3.6639766693115234,0.1265592873096466,1.408318281173706,-0.15161436796188354,13.20121955871582,0.11566736549139023,1.668256402015686,-0.14543017745018005,22.166034698486328,0.1474081128835678,2.0317702293395996,-0.22412508726119995,-16.431163787841797,-0.0008199894800782204,2.2767691612243652,-0.246177077293396,-15.310568809509277,-0.04348907247185707,1.9651304483413696,-0.0843505784869194,-26.6038875579834,0.010050353594124317,2.19741153717041,-0.05007076635956764,30.57327651977539,-0.18728940188884735,-0.2797601819038391,-0.797795832157135,22.55072021484375,0.09881266951560974,-0.3082984983921051,-0.791944146156311,13.579015731811523,0.10215850919485092,-0.22572895884513855,-0.35076209902763367,24.674068450927734,-0.14457570016384125,-0.16774989664554596,-0.3372317850589752,24.621774673461914,-0.14497973024845123,-0.1969078630208969,-0.32297495007514954,22.971500396728516,-0.01622094213962555,-0.3595200479030609,-1.4318078756332397,2.69109845161438,0.22739478945732117,2.498337507247925,-0.22748307883739471,11.958540916442871,0.2736652195453644,2.457350730895996,-0.05505581572651863,20.61739158630371,-0.0028494251891970634,2.2992606163024902,-0.19910340011119843,-19.509244918823242,0.0573120079934597,2.810272455215454,0.009115172550082207,-18.512203216552734,0.06405416131019592,2.4205024242401123,-0.20572726428508759,-30.692981719970703,0.018686443567276,2.5550200939178467,-0.099741630256176,24.767658233642578,-0.07450846582651138,-0.10613666474819183,0.660631000995636,17.254283905029297,-0.02871859446167946,-0.15797673165798187,1.0280895233154297,8.78850269317627,0.04488278925418854,-0.36530470848083496,1.42202889919281,20.033042907714844,-0.14270919561386108,-0.11970165371894836,1.216877818107605,20.101913452148438,-0.13263379037380219,-0.11424259841442108,1.7539883852005005,19.22039794921875,0.05011045187711716,-0.03728050738573074,0.19857269525527954,-3.543905735015869,0.06281474977731705,3.1262104511260986,0.04067884013056755,4.644173622131348,0.021416475996375084,3.1274778842926025,0.0504743717610836,12.800579071044922,-0.021229809150099754,2.787959098815918,0.022634491324424744,-27.04458999633789,0.04001114144921303,3.2231180667877197,0.05089470371603966,-26.193809509277344,0.12448830902576447,3.145667314529419,-0.032886192202568054,-38.517738342285156,-0.07381311804056168,3.5392324924468994,-0.0739624947309494,22.857715606689453,-0.08132077753543854,0.005132181569933891,1.4210609197616577,15.832401275634766,-0.11712769418954849,-0.14244383573532104,2.521972894668579,7.627041339874268,0.09090106189250946,-0.024998396635055542,3.374753952026367,19.594120025634766,-0.021278372034430504,-0.11740104109048843,3.351248264312744,19.9716854095459,-0.138268381357193,-0.14023227989673615,4.19987678527832,19.346250534057617,-0.11360785365104675,-0.14728331565856934,3.0535168647766113,-6.974964141845703,-0.0022839203011244535,3.402630567550659,0.022841546684503555,0.8687034845352173,-0.08353198319673538,3.678165912628174,0.10605727881193161,8.442874908447266,-0.1354239284992218,4.236420154571533,0.17427143454551697,-32.58274841308594,-0.028831014409661293,4.668159008026123,0.24626266956329346,-32.204925537109375,0.11506588757038116,4.599400997161865,0.10822512954473495,-44.8597412109375,-0.1850011646747589,4.8365631103515625,0.059654321521520615,17.310949325561523,-0.1558992862701416,-0.1138545498251915,0.09602011740207672,10.697643280029297,-0.18692295253276825,-0.13026519119739532,1.2083652019500732,3.298090934753418,0.029131734743714333,-0.12445617467164993,2.086613893508911,14.900787353515625,-0.16483564674854279,-0.043445419520139694,2.152191162109375,15.914588928222656,-0.03137863427400589,-0.17381976544857025,3.3547048568725586,16.019147872924805,-0.008205673657357693,-0.24904346466064453,2.698424816131592,-13.178366661071777,-0.018593426793813705,3.383881092071533,-0.05686606466770172,-6.391471862792969,-0.2620075047016144,3.6342575550079346,0.048968344926834106,0.4876710772514343,-0.06363880634307861,4.00635290145874,0.0044186897575855255,-40.15443420410156,-0.15546464920043945,4.624959468841553,-0.010788419283926487,-40.218238830566406,-0.037300799041986465,4.72420072555542,-0.0797756165266037,-53.13163757324219,-0.19873696565628052,5.0948286056518555,-0.1293410360813141]},"kernelsCount":2,"inputScale":[1,1],"layerIndex":1},"bias":{"isPot":true,"width":2,"isFloat":true,"data":[-167.16810607910156,15.409037590026855,409.51263427734375,-60.73920440673828,-181.07948303222656,-19.260507583618164,33.50924301147461,660.1824951171875,-169.922607421875,-0.12576504051685333,0.5838015675544739,434.08477783203125,-263.9671936035156,-11.875483512878418,307.6344299316406,14.195467948913574]},"index":1,"classesCount":0,"connectivityUp":"conv","normalize":false,"kernelsCount":2,"maxPooling":false,"isReorganize":true,"shiftRGBAMode":0},{"size":16,"sparsity":8,"activation":"gelu","connectivity":{"fromLayerSize":64,"toLayerSize":16,"toSparsity":8,"weights":{"isPot":true,"width":16,"isFloat":true,"data":[-1.369515061378479,-0.6335806250572205,0.737335741519928,0.832718014717102,0.15616853535175323,-0.13712187111377716,0.1712622493505478,0.0262124203145504,-0.6422539949417114,-0.7510987520217896,-0.2665501832962036,0.8932561278343201,0.16317099332809448,-0.11289592832326889,0.18919210135936737,0.10871399194002151,-0.7390142679214478,-0.7882071137428284,-1.8461557626724243,-0.48140090703964233,0.30440205335617065,-0.07030203938484192,0.0829850360751152,0.045717064291238785,-0.8099662065505981,-0.7984250783920288,-1.9267749786376953,-0.5922147035598755,0.8035483956336975,-0.08470192551612854,-0.05873024836182594,0.12730197608470917,0.6261594295501709,1.038385272026062,0.03915945813059807,-0.011997063644230366,-0.27754661440849304,-0.14304451644420624,-0.07366909831762314,-1.371687889099121,0.03770977631211281,1.7329081296920776,0.03278809413313866,0.03483269363641739,-0.03374287113547325,-0.13127239048480988,-0.0000885450208443217,-1.7951899766921997,0.025362661108374596,1.8587476015090942,0.17146949470043182,0.017294222488999367,0.03567427396774292,-0.1115301102399826,0.012099551036953926,-1.8100085258483887,-0.05373198539018631,1.6210800409317017,0.04944811761379242,0.018316566944122314,0.7590624094009399,0.08560702204704285,0.07333183288574219,-1.5341988801956177,-0.6149848699569702,0.09808845818042755,-0.04482553154230118,0.3170211613178253,0.26037707924842834,0.4402816593647003,0.16325296461582184,-0.02009844034910202,-0.42340368032455444,-0.017476659268140793,-0.04926899075508118,0.7536285519599915,0.15900710225105286,0.16186927258968353,-0.018464265391230583,-0.03835130110383034,-0.47962549328804016,-0.06658259779214859,0.0368354506790638,1.1649541854858398,0.08501370251178741,-0.11800610274076462,0.026785852387547493,0.02555415965616703,-0.44264522194862366,0.015554686076939106,-0.03634696081280708,1.5305166244506836,0.2761981189250946,-0.28214091062545776,0.015974290668964386,-0.009594888426363468,0.5511773824691772,0.08960927277803421,0.02924610674381256,-0.027512839064002037,-0.156967431306839,-0.006213977001607418,-1.3349324464797974,-0.011643435806035995,0.13968566060066223,0.06249592825770378,-0.022261442616581917,0.01686052791774273,0.16151468455791473,0.15145668387413025,-0.9161213636398315,0.03789983317255974,0.19558373093605042,0.016061710193753242,-0.028517086058855057,-0.048690300434827805,0.08963289856910706,0.029381252825260162,-0.5738868713378906,-0.009468652307987213,-0.05473802983760834,-0.02830957993865013,-0.013567347079515457,-0.03191589564085007,0.6799208521842957,0.18651993572711945,-0.24813714623451233,-0.004719505552202463,-1.437598705291748,-0.05764981731772423,1.865445613861084,0.23057226836681366,0.17486166954040527,0.16578863561153412,0.03993299603462219,0.08375946432352066,-0.22252655029296875,-0.17225861549377441,0.7790669202804565,-0.20335429906845093,0.1396474689245224,0.022968903183937073,0.14441107213497162,0.0397556833922863,-0.15885329246520996,-0.4059656858444214,-1.7853769063949585,-0.1572609841823578,0.19003382325172424,0.19968251883983612,0.23173628747463226,-0.0643945261836052,-0.1964680701494217,-0.23351696133613586,-2.4542579650878906,0.1782025694847107,0.682762861251831,-0.009161651134490967,0.1520802229642868,-0.13120456039905548,0.43815046548843384,0.75986248254776,0.07903911173343658,0.06109261512756348,-0.22438989579677582,0.11633975803852081,0.027793584391474724,-1.597809076309204,-0.06037553399801254,0.37889429926872253,0.007530815899372101,-0.07195086032152176,0.07706940919160843,0.17195147275924683,-0.015197980217635632,-2.01924991607666,0.007577065844088793,-0.28389400243759155,-0.11771703511476517,0.11447847634553909,0.04522871971130371,0.1613183319568634,-0.0890161395072937,-1.7415920495986938,-0.17680877447128296,-0.5529072880744934,0.03811737149953842,0.014860481023788452,0.6135351657867432,0.33975154161453247,-0.035618722438812256,-0.7024477124214172,-0.8434783816337585,0.11726125329732895,-0.039348918944597244,0.1634412407875061,0.26144295930862427,0.4771723449230194,-0.06204776465892792,0.07330380380153656,-0.22211432456970215,0.08231187611818314,0.10672137141227722,0.19123409688472748,0.1798732727766037,0.4283452033996582,0.05380512773990631,-0.05613352730870247,-0.34196969866752625,-0.026507161557674408,-0.0013360553421080112,0.24068324267864227,0.22189801931381226,0.012502241879701614,-0.016824698075652122,0.041369471698999405,-0.40548866987228394,-0.04465840756893158,0.004591803066432476,0.058374740183353424,0.40179866552352905,-0.45695778727531433,0.01881629414856434,0.09230487048625946,0.6664931774139404,0.05907168984413147,-0.018256520852446556,-0.03966550901532173,-0.27464112639427185,-0.167339026927948,-1.163938045501709,-0.046755969524383545,0.14116188883781433,0.07029218971729279,-0.02200303226709366,-0.054829154163599014,0.08119507879018784,-0.003647601930424571,-1.4134504795074463,0.03885287418961525,0.14429070055484772,-0.05981844663619995,-0.03057822212576866,-0.011430572718381882,-0.009182719513773918,0.10336742550134659,-0.9865034222602844,-0.020743926987051964,-0.21937304735183716,-0.0013601335231214762,0.029805222526192665,0.05457424744963646,0.7103664875030518,0.1781739890575409,0.4021945595741272,-0.04312945902347565,-1.2898060083389282,0.6786823868751526,1.6128581762313843,-0.1291985809803009,0.2970893979072571,0.1532157063484192,-0.2055959403514862,-0.017490293830633163,-0.13202643394470215,0.6757457256317139,1.0622155666351318,0.14055564999580383,0.1684475839138031,0.27680644392967224,-0.20865604281425476,-0.013967273756861687,-0.15182480216026306,0.7543959617614746,-1.0738046169281006,0.322589635848999,0.1094207689166069,0.2541869580745697,-0.024905715137720108,0.022363420575857162,-0.19068333506584167,0.9053739905357361,-1.8977032899856567,0.7756752967834473,0.5097692012786865,0.1506625860929489,0.03062661923468113,-0.06150482967495918,0.4269651174545288,-0.9379488825798035,-0.048440348356962204,-0.05142325907945633,-0.15412792563438416,0.16342957317829132,0.039169106632471085,-1.3159914016723633,-0.00911562331020832,-1.678011178970337,0.08102281391620636,-0.012780443765223026,0.08088613301515579,0.18526262044906616,0.058728013187646866,-1.4510799646377563,0.04259413853287697,-1.685632586479187,0.012167258188128471,-0.020502466708421707,0.03915281221270561,0.09777366369962692,0.029195820912718773,-1.0403239727020264,-0.049308232963085175,-0.7690703272819519,-0.09680546820163727,0.025401411578059196,0.5993858575820923,0.009822636842727661,0.017582552507519722,-0.008532868698239326,-0.9388285875320435,0.15993377566337585,0.03266321122646332,0.001989242620766163,0.2031463086605072,0.368633508682251,-0.01973479799926281,0.03395390883088112,-0.3757558763027191,0.036121878772974014,-0.051176972687244415,-0.052547283470630646,0.1848127692937851,0.5257665514945984,-0.02770243212580681,-0.0018389439210295677,-0.34023621678352356,0.021220797672867775,0.013011441566050053,-0.07417794317007065,0.14645393192768097,0.3092975914478302,0.13555772602558136,-0.026784220710396767,-0.4674704670906067,-0.10756655782461166,-0.02596685104072094,-0.5309929251670837,0.48027339577674866,-0.24919493496418,-0.08384022116661072,0.08578643202781677,0.7015638947486877,-0.10243815928697586,0.004158255644142628,0.017582561820745468,-0.36457008123397827,-0.06204527989029884,-1.0678168535232544,0.00885125994682312,0.10211005061864853,-0.07938461005687714,0.021479180082678795,-0.006151519250124693,0.08833830803632736,-0.05717181786894798,-2.431349754333496,0.00818314403295517,0.08933901786804199,-0.014207831583917141,0.03781506046652794,-0.03163931146264076,0.031268272548913956,0.11208438873291016,-2.472860097885132,-0.07360567897558212,-0.3134918510913849,0.08130515366792679,-0.0019875075668096542,0.07861612737178802,0.7197406888008118,0.22133490443229675,-0.8313208818435669,-0.05471700057387352,-1.1853668689727783,0.9626258015632629,0.6434410810470581,0.14881296455860138,0.3498894274234772,0.10090994834899902,-0.033632345497608185,0.04813605919480324,-0.14041750133037567,1.0074267387390137,0.9049028754234314,0.2540092468261719,0.13325445353984833,-0.1098378598690033,-0.18429908156394958,-0.04275113716721535,-0.11510007828474045,0.9237143993377686,-0.17511747777462006,1.399390697479248,0.2547382116317749,-0.13458870351314545,-0.13628354668617249,0.011663461104035378,-0.012464393861591816,0.5912659764289856,-0.9149177074432373,0.5072088241577148,0.5960256457328796,-0.2441050261259079,-0.20304468274116516,-0.0006370888440869749,0.3608810603618622,-0.24409106373786926,-0.00934585276991129,-0.11195927113294601,-0.17630383372306824,0.004304551053792238,0.024828286841511726,-1.3205050230026245,-0.0011698831804096699,0.07869874686002731,-0.049263905733823776,-0.017474940046668053,0.016639521345496178,-0.197130024433136,-0.022088581696152687,-1.2668997049331665,-0.013987976126372814,0.6214614510536194,0.057786572724580765,-0.031154686585068703,-0.011114592663943768,-0.07809392362833023,0.051901835948228836,-0.874889612197876,-0.12682023644447327,0.8839902877807617,-0.0032568559981882572,-0.06419353932142258,0.5030542612075806,0.030090708285570145,0.08349352329969406,-0.3289324939250946,-0.6325442790985107,0.18708685040473938,0.012914839200675488,-1.3868017196655273,0.28584596514701843,0.051655642688274384,0.07181626558303833,0.014113100245594978,-0.31114715337753296,0.08107835799455643,0.018932821229100227,-1.394932508468628,0.3153020441532135,0.28670573234558105,0.033339522778987885,-0.023404570296406746,-0.4664228856563568,-0.053390681743621826,0.023596886545419693,-0.8695561289787292,0.3504752516746521,0.3581103980541229,0.010273522697389126,-0.05426393821835518,-0.8238358497619629,-0.1863717883825302,0.03172297775745392,-0.8359519243240356,0.5985113382339478,0.11768564581871033,0.10903871059417725,0.0057008578442037106,0.8560290932655334,-0.030032068490982056,-0.04164191335439682,0.028632771223783493,-0.4377446174621582,0.0012716789497062564,-0.05899491161108017,-0.024296119809150696,0.15656086802482605,-0.014249881729483604,-0.015300612896680832,-0.06380645185709,0.06032922491431236,-0.09587063640356064,-0.8852282166481018,0.03657460957765579,0.17266687750816345,0.04074404016137123,-0.008030512370169163,-0.03992690518498421,0.018184462562203407,-0.020586809143424034,-1.7923460006713867,0.07183339446783066,-0.32840612530708313,0.1506175398826599,0.005814009346067905,0.017384828999638557,0.8532706499099731,0.1755981594324112,-1.5850273370742798,0.05493747815489769,0.7087481021881104,-0.11460595577955246,-1.821457028388977,-0.022075576707720757,-0.7042449116706848,1.119957447052002,-0.015000564977526665,0.023371756076812744,0.21306563913822174,0.12109187245368958,-1.5979984998703003,-0.14961829781532288,-0.44001534581184387,1.2960788011550903,0.020491773262619972,-0.0049999309703707695,0.163243368268013,0.18089702725410461,-0.8978819847106934,-0.021737948060035706,-0.32057222723960876,1.1737191677093506,0.007455586921423674,0.060439158231019974,0.1195632591843605,0.15418602526187897,-0.6009951829910278,-0.049658481031656265,-0.5779847502708435,1.1029571294784546,-0.10238760709762573,0.05804724246263504,-0.5965316891670227,0.22494857013225555,-0.19332292675971985,0.5694844722747803,-0.3101837635040283,0.1825093924999237,-0.7982327342033386,-0.0771525576710701,-0.15254917740821838,0.17127297818660736,-0.041295237839221954,-0.4814082086086273,-0.17787441611289978,0.5469910502433777,-1.1780880689620972,-0.02628767490386963,-0.10859880596399307,0.12754280865192413,-0.014086766168475151,0.13201530277729034,-0.4090997278690338,0.3833935856819153,-1.7774537801742554,-0.03261076286435127,-0.2777061462402344,0.11130774766206741,-0.08549893647432327,0.13892297446727753,-0.8091548681259155,-0.25055554509162903,-1.1124505996704102,-0.02763131633400917,0.17714296281337738,-0.6887653470039368,-0.03069167770445347,0.5941097736358643,-0.30670878291130066,0.10559570044279099,-0.05595139041543007,-0.008654259145259857,0.28442710638046265,-0.06876374036073685,0.021091727539896965,-0.9985151290893555,-0.3373953700065613,-0.07755713164806366,-0.022251572459936142,0.053131453692913055,0.3224274516105652,0.32443681359291077,-0.047760941088199615,-0.8861706852912903,-0.36225625872612,-0.17940941452980042,-0.020531533285975456,0.06999576836824417,0.5161035060882568,0.41801679134368896,-0.0944940596818924,-1.889953374862671,-0.6956512928009033,0.04606914520263672,-0.011280867271125317,0.027270691469311714,-0.13726146519184113,-0.012021848931908607,-0.012765622697770596,0.9327224493026733,0.565426766872406,0.6809663772583008,-0.07847867161035538,0.01765480451285839,0.0901234894990921,-0.010117936879396439,-0.00048610958037897944,0.8413545489311218,0.27673792839050293,0.6300201416015625,-0.052936285734176636,0.054163675755262375,0.11794547736644745,0.09283486753702164,-0.021720202639698982,0.7542226910591125,0.250861257314682,0.5472694039344788,-0.05632886663079262,-0.08166337758302689,0.16039375960826874,0.18353989720344543,0.04215328395366669,0.09278711676597595,-0.17382533848285675,0.3333219587802887,0.10895594209432602,0.03495060279965401,0.5717832446098328,0.2768762707710266,-2.348879814147949,0.030449485406279564,-0.29127153754234314,-0.10824404656887054,0.02056352235376835,0.02923455461859703,0.14955221116542816,0.4160626530647278,-2.101884126663208,0.032765261828899384,-0.26917657256126404,-0.27488842606544495,0.053137220442295074,0.052853092551231384,0.07603609561920166,0.2838859558105469,-1.018762469291687,0.06690581142902374,-0.36921200156211853,-0.3588910698890686,-0.02234138734638691,0.015733199194073677,0.12583056092262268,0.35188549757003784,-0.6128209829330444,0.01897115260362625,-0.9744991660118103,-0.07446327060461044,0.025274651125073433,0.018545666709542274,-0.5091104507446289,-0.15765313804149628,-0.05043128505349159,-0.1432817131280899,0.052354596555233,0.24028266966342926,0.5489665269851685,0.056352708488702774,0.010027172975242138,-0.09596468508243561,-0.009398018941283226,0.0779869332909584,0.041639599949121475,0.6244122982025146,0.1841503530740738,0.10316198319196701,0.05068645253777504,0.06304478645324707,0.03715167194604874,2.1536736488342285,-0.04673665761947632,0.11302081495523453,0.0837080180644989,-0.024450227618217468,0.02659820392727852,0.08115801215171814,0.031717654317617416,1.0855518579483032,-0.7832375764846802,-0.9311794638633728,-1.319982647895813,0.01805081218481064,0.30219465494155884,-0.8358613848686218,-0.007636060006916523,0.5842241644859314,-0.22712360322475433,0.15020854771137238,0.08830703794956207,0.020261796191334724,0.2904471457004547,0.061257388442754745,-0.005922526121139526,-1.1595194339752197,-0.37784430384635925,0.12222474068403244,0.08376981317996979,0.03300128132104874,0.23977543413639069,0.5249354839324951,0.022086303681135178,-1.7763793468475342,-0.31143540143966675,0.03658319637179375,-0.020373115316033363,0.022882316261529922,0.4094373881816864,0.4498842656612396,-0.034945301711559296,-1.1907882690429688,-0.8574736714363098,-0.22897790372371674,-0.10974792391061783,0.07579734176397324,-0.18041382730007172,0.02090836875140667,-0.0053189415484666824,0.5482833385467529,0.506938636302948,0.7673277854919434,0.12240713089704514,-0.012664033100008965,0.04524459317326546,0.12618796527385712,0.047499798238277435,0.8240312933921814,0.3209412097930908,0.7569586038589478,-0.12500977516174316,-0.06545700877904892,0.1521524339914322,0.22566120326519012,-0.049305323511362076,0.7846664190292358,0.21481338143348694,0.4838375449180603,-0.16205598413944244,0.09799850732088089,0.17400221526622772,0.2347516268491745,0.02764659933745861,0.603545069694519,-0.14429502189159393,0.04554889723658562,0.16248038411140442,-0.025384090840816498,0.4263915717601776,0.2524878978729248,-1.7239195108413696,0.086477130651474,-0.2507856488227844,0.06979312747716904,0.04948863387107849,-0.1106305867433548,0.06824206560850143,0.21437720954418182,-1.7013314962387085,0.004290319979190826,-0.17747865617275238,-0.1288362294435501,-0.024820450693368912,-0.05854630842804909,0.10848808288574219,0.2232903689146042,-0.8696024417877197,-0.020106732845306396,-0.21897098422050476,-0.26517975330352783,0.04534849151968956,-0.03145243227481842,0.18654832243919373,0.3565044403076172,-0.639509379863739,-0.14991481602191925,-0.9016987085342407,-0.04164388030767441,-0.020245850086212158,0.00664267223328352,-0.5224601626396179,-0.18559230864048004,-0.016081027686595917,-0.11309191584587097,0.10601101070642471,0.17494788765907288,0.9123194813728333,0.1567409187555313,0.03263920918107033,-0.3872322738170624,0.019474972039461136,1.8570178747177124,0.024071451276540756,0.20591913163661957,0.12057460844516754,0.007664036005735397,0.025510335341095924,-0.3198351263999939,-0.051150187849998474,1.4992084503173828,-0.06519317626953125,-0.48664021492004395,-0.1699102818965912,-0.003510480048134923,0.06313049793243408,-0.15678635239601135,-0.004060516133904457,-0.5453765988349915,-0.8071891665458679,-1.2775778770446777,-0.5420913696289062,0.08295741677284241,0.4731651544570923,-0.7588613033294678,-0.02708127163350582,-0.7739151120185852,-0.36012884974479675,-0.2300434708595276,-0.047452133148908615,0.014622768387198448,0.3511549234390259,0.08682595938444138,0.06688256561756134,-1.883469820022583,-0.29010987281799316,0.20428431034088135,0.1096305102109909,0.027273716405034065,0.3271474540233612,0.4795912802219391,-0.0003883826720993966,-1.5261070728302002,-0.5037563443183899,0.2360703945159912,0.12816165387630463,-0.019198903813958168,0.38046056032180786,0.1751188486814499,0.0017206765478476882,-0.07163851708173752,-1.2834999561309814,0.027328575029969215,-0.04626232385635376,0.04432780668139458,-0.19210167229175568,0.04538509249687195,-0.025157297030091286,0.646262526512146,0.5011379718780518,0.4790763556957245,-0.024998275563120842,-0.01413865014910698,0.09362611174583435,0.14732910692691803,-0.07045044749975204,0.5271657109260559,0.24308602511882782,0.573117196559906,-0.03794896602630615,-0.05665032938122749,0.14798063039779663,0.1543402224779129,-0.03412126004695892,0.8465709090232849,0.16507107019424438,0.4235323965549469,-0.24373078346252441,0.012118000537157059,0.22990639507770538,0.15672877430915833,-0.008784775622189045,1.0079935789108276,-0.1933802366256714,0.0443449541926384,0.09463509917259216,0.06324536353349686,0.4327796697616577,-0.06807806342840195,-1.1682294607162476,0.02144523896276951,-0.3069661259651184,0.8514109253883362,-0.059135373681783676,-0.06335583329200745,0.1106407642364502,0.05177706852555275,-1.34911048412323,0.07654497027397156,-0.17087838053703308,0.9422022700309753,0.05200837552547455,-0.07615375518798828,0.15000154078006744,0.17046718299388885,-0.9614315032958984,-0.05737641081213951,-0.14138053357601166,0.8306886553764343,0.02879813313484192,0.03141959756612778,0.27782171964645386,0.31802526116371155,-0.6912950277328491,0.02658963017165661,-0.7991986274719238,0.8446750044822693,0.07176178693771362,-0.01409964356571436,-0.5547266602516174,0.08440868556499481,-0.05345524474978447,-0.13119462132453918,0.2557741105556488,0.13928696513175964,0.8270214796066284,-0.08500456809997559,0.05379771441221237,-0.09487197548151016,-0.021723797544836998,-0.7459171414375305,0.047349266707897186,-0.09248590469360352,1.13462233543396,0.022736581042408943,-0.030789444223046303,-0.14315083622932434,0.10014860332012177,-2.6418142318725586,-0.04258138686418533,-0.47505947947502136,0.6386660933494568,-0.08334916830062866,0.20525871217250824,-0.31972408294677734,0.04447651281952858,-2.4873569011688232,-0.6331362128257751,-0.7787114381790161,0.37767505645751953,-0.02106596529483795,0.5956506729125977,-0.47473329305648804,0.010053019970655441,-1.548698902130127,-0.6832816004753113,-0.3790258765220642,0.06305193901062012,0.025089679285883904,0.4334671199321747,0.05946290120482445,-0.03473787009716034,-1.2345765829086304,-0.5590519905090332,-0.20971353352069855,-0.0004878744948655367,0.04314567893743515,0.326900839805603,0.19838809967041016,0.006489385385066271,-0.9389562606811523,-0.6910332441329956,0.16742795705795288,0.05923127010464668,0.045595429837703705,0.3337295949459076,0.03899639472365379,0.056774746626615524,0.44178664684295654,-1.2316759824752808,0.32929593324661255,0.09938944876194,0.03340104594826698,-0.12434741109609604,0.18580690026283264,0.1049128994345665,0.6747120022773743,0.6465821862220764,0.2430962324142456,0.22093407809734344,-0.038397416472435,0.1001976877450943,0.18369217216968536,0.07902084290981293,0.5750475525856018,0.42814159393310547,0.30836525559425354,-0.01869642734527588,0.003791837254539132,0.20725862681865692,0.14104095101356506,0.05317824333906174,0.6548275351524353,0.35233572125434875,0.3507428765296936,-0.08177171647548676,-0.0014380922075361013,0.22794488072395325,0.13922907412052155,-0.03383985161781311,1.0300832986831665,-0.035755034536123276,-0.07496035099029541,0.078266441822052,-0.00660813320428133]},"kernelsCount":2,"inputScale":[1,1],"layerIndex":2},"bias":{"isPot":true,"width":2,"isFloat":true,"data":[0.521270215511322,-0.009574566967785358,-0.4125746488571167,-0.6452282667160034,-0.07795855402946472,-0.4511018395423889,-0.48688051104545593,-0.36868882179260254,0.46653294563293457,-0.13228948414325714,-0.08830699324607849,-0.32587775588035583,0.2582269608974457,0.012062677182257175,-0.6221367120742798,-0.8039790391921997]},"index":2,"classesCount":0,"connectivityUp":"conv","normalize":false,"kernelsCount":2,"maxPooling":false,"isReorganize":false,"shiftRGBAMode":0},{"size":8,"sparsity":16,"activation":"gelu","connectivity":{"fromLayerSize":16,"toLayerSize":8,"toSparsity":16,"weightsFromTo":false,"fromBindings":false,"toBindings":false,"square":false,"weights":{"isPot":true,"width":128,"isFloat":true,"data":[0.029487695544958115,-0.04572580009698868,0.0027854617219418287,-0.06819970905780792,0.0482892207801342,0.03567242994904518,-0.036513134837150574,-0.040505945682525635,-0.11017404496669769,0.0024987913202494383,-0.028880707919597626,-0.09246876835823059,-0.21301421523094177,-0.06204066425561905,-0.020290255546569824,-0.08053575456142426,-0.06629494577646255,-0.029218723997473717,-0.05218701809644699,-0.12818442285060883,0.20373421907424927,0.008812966756522655,-0.03313583880662918,-0.16624654829502106,0.10665387660264969,-0.0046621584333479404,-0.03950725123286247,-0.17206896841526031,-0.009364308789372444,-0.06692446023225784,0.050590671598911285,-0.20450539886951447,0.12952852249145508,0.008296583779156208,-0.05851228907704353,0.006901707034558058,0.10053219646215439,-0.010297355242073536,-0.03654037415981293,0.022364076226949692,0.2268320620059967,0.03441938757896423,0.036271724849939346,0.08088308572769165,0.048590317368507385,-0.054412733763456345,-0.06443648040294647,0.02558232843875885,-0.15749862790107727,-0.04752501845359802,-0.18399925529956818,0.057562731206417084,-0.28383779525756836,-0.09608831256628036,-0.12754642963409424,0.10036815702915192,-0.11658830940723419,-0.02421860210597515,0.08388572186231613,0.16843853890895844,0.019362865015864372,-0.07530390471220016,0.07683734595775604,0.15783482789993286,0.05510781705379486,0.060870006680488586,0.138890340924263,-0.064155712723732,-0.06339524686336517,0.027899403125047684,0.11006864905357361,0.014305210672318935,0.0258348248898983,0.011352208442986012,0.06119120866060257,-0.05037882551550865,0.18119043111801147,0.041093990206718445,0.023476384580135345,-0.039014071226119995,0.044637951999902725,0.09103325754404068,0.04011960327625275,0.16816739737987518,-0.20350764691829681,0.04663356393575668,0.050971273332834244,-0.1948615163564682,-0.16436636447906494,0.008783302269876003,0.015498960390686989,-0.2634428143501282,0.23934334516525269,-0.03993912786245346,0.07151655852794647,0.09631815552711487,-0.03373967856168747,-0.009316499345004559,-0.026667652651667595,-0.029316723346710205,0.05922370404005051,0.039638061076402664,-0.159859299659729,-0.08978794515132904,0.08785073459148407,-0.04353345185518265,-0.006731434725224972,-0.0748135894536972,0.02053532563149929,0.0019277427345514297,-0.021155545487999916,-0.08792810887098312,-0.09910861402750015,-0.013078766874969006,-0.2519470751285553,-0.07853339612483978,0.11856966465711594,-0.0219747144728899,-0.30396953225135803,-0.033791523426771164,0.03137785196304321,-0.03425300121307373,-0.1443469524383545,-0.025096725672483444,0.24826417863368988,-0.050171803683042526,-0.029352176934480667,0.051238738000392914,-0.09586282819509506,0.03439534455537796,0.0059624332934618,-0.1620483100414276,-0.0009663976961746812,0.003036186099052429,0.029408546164631844,-0.3206420838832855,0.03832882642745972,0.003985670395195484,0.00810972135514021,-0.2954907715320587,-0.005661116912961006,0.053588107228279114,0.03169342130422592,-0.25999516248703003,-0.0064073652029037476,0.017837144434452057,0.009814619086682796,-0.185508131980896,0.04490214213728905,0.0633147656917572,0.02868843637406826,-0.04600394144654274,0.014823894947767258,0.026005035266280174,-0.06273069232702255,0.0756697952747345,0.115315742790699,0.022812359035015106,0.044751401990652084,0.008311249315738678,-0.03234417364001274,0.0058245304971933365,0.014691656455397606,-0.044480908662080765,-0.15473565459251404,0.016378387808799744,0.040182989090681076,-0.05155935138463974,-0.04517398029565811,0.0320262536406517,0.029595298692584038,-0.03769269958138466,-0.05076191574335098,0.02195320650935173,-0.06668192893266678,-0.08843711018562317,0.11514405161142349,0.010079213418066502,-0.14349663257598877,0.035007864236831665,0.15089887380599976,0.030909262597560883,-0.4852363169193268,-0.07577120512723923,0.059332285076379776,0.09016238898038864,-0.6599268913269043,-0.14686274528503418,0.01303822547197342,-0.024122094735503197,-0.47706472873687744,-0.24418921768665314,-0.027984589338302612,0.016018398106098175,0.060441769659519196,-0.10286589711904526,-0.08237156271934509,0.05073467642068863,-0.010620306245982647,0.08972625434398651,-0.3463986814022064,0.005335106980055571,-0.03578980267047882,-0.019581424072384834,0.04182315990328789,0.013645202852785587,-0.014273497276008129,0.18354381620883942,0.3459884226322174,-0.10198640823364258,-0.07397608458995819,0.19591832160949707,0.13578365743160248,0.031058311462402344,0.011445356532931328,0.05321049317717552,-0.1497635841369629,0.0327240414917469,-0.07276444882154465,-0.15916161239147186,-0.07478593289852142,0.01654731296002865,-0.05997251346707344,-0.2422000765800476,0.08169695734977722,0.029685452580451965,0.13624270260334015,0.03410806134343147,0.110872283577919,0.0651169866323471,0.11029696464538574,0.0561215803027153,0.19137699902057648,0.03058609366416931,0.08795876055955887,0.04383096471428871,-0.031138550490140915,0.05890693515539169,0.07973804324865341,-0.00603118073195219,-0.2601601183414459,0.03212624788284302,0.3033594787120819,0.04073919728398323,-0.18057119846343994,0.03373059257864952,0.30080750584602356,-0.035650480538606644,0.16104066371917725,0.04321301728487015,0.11465685814619064,0.11205686628818512,0.14676281809806824,0.030511625111103058,0.08572855591773987,0.10627090185880661,-0.08199962228536606,-0.04341850429773331,0.06420166045427322,-0.10223162919282913,-0.05240966007113457,0.0072526526637375355,0.08404558897018433,0.03251492977142334,-0.07538124173879623,0.007763825356960297,-0.03211067244410515,0.0790904089808464,0.08423097431659698,0.022129204124212265,0.06013259291648865,-0.021899135783314705,0.22475449740886688,-0.022413382306694984,0.06775711476802826,-0.11907932162284851,0.183266282081604,-0.029328839853405952,0.05949140712618828,-0.3209923207759857,-0.0013647074811160564,-0.0288246963173151,0.16741834580898285,-0.19781944155693054,0.05688546225428581,0.026880711317062378,0.21422673761844635,-0.09538400173187256,-0.34635528922080994,-0.0026117858942598104,0.3069385886192322,0.029882408678531647,-0.42701268196105957,-0.06384214013814926,0.3363777697086334,0.11222440749406815,-0.6225759983062744,0.012686417438089848,0.2734734117984772,0.000206270968192257,-0.6712825894355774,0.018774015828967094,0.33233487606048584,0.0875692069530487,-0.32788512110710144,-0.033702343702316284,0.3572334051132202,0.11165731400251389,-0.0365825854241848,0.0016770258080214262,0.18575911223888397,0.08704646676778793,0.2706441879272461,0.02952703647315502,0.20947521924972534,0.1456683725118637,0.45174235105514526,-0.031762104481458664,0.037963464856147766,0.129152312874794,0.1829766482114792,-0.31959205865859985,-0.024125421419739723,-0.05720945820212364,0.16263511776924133,-0.08948343247175217,0.03756484016776085,0.04011059179902077,0.25084635615348816,-0.08967109769582748,0.00854875985532999,0.06078945845365524,0.1723373383283615,-0.061840105801820755,0.042924072593450546,0.054275937378406525,0.07088940590620041,-0.1925712674856186,0.006027807481586933,0.06888332962989807,0.07200711220502853,-0.11625180393457413,-0.006692157126963139,0.12922225892543793,0.016778787598013878,-0.1750403493642807,-0.017131101340055466,0.16194787621498108,-0.06371366232633591,-0.10058964043855667,0.03107592649757862,0.05108078196644783,0.035639625042676926,0.016526490449905396,-0.6980060935020447,0.03523542732000351,0.00705362344160676,0.02571057341992855,-0.7540275454521179,0.07002077251672745,0.012284522876143456,-0.00002828962533385493,-0.6896880269050598,0.015882188454270363,0.10794299840927124,0.07541194558143616,-0.5321773886680603,0.057736240327358246,0.18592847883701324,-0.03841618821024895,-0.40396878123283386,0.026002902537584305,0.111735500395298,0.02057556062936783,-0.3529732823371887,-0.005290592554956675,-0.018917284905910492,-0.04373874142765999,-0.1477227509021759,0.033018313348293304,0.11143797636032104,-0.10912453383207321,-0.03725040704011917,0.04616611823439598,-0.2083868682384491,0.10792636126279831,0.09147235006093979,-0.04000496491789818,0.13498187065124512,0.06307581812143326,0.027487333863973618,-0.025420062243938446,0.017641087993979454,0.1211981251835823,0.031024333089590073,0.025466950610280037,-0.0052801743149757385,0.07544881850481033,0.05322284623980522,-0.008538397960364819,0.13783696293830872,0.05159836262464523,0.010252217762172222,-0.026263780891895294,0.18817171454429626,0.021062621846795082,0.0696057379245758,-0.12156275659799576,0.32879629731178284,-0.025791333988308907,-0.0028022152837365866,-0.1180453822016716,0.359667032957077,0.04945898428559303,0.03965117782354355,0.02914990670979023,-0.24697278439998627,0.02867547608911991,0.10396032780408859,0.11616123467683792,0.059592023491859436,0.03311312198638916,0.14022082090377808,0.08364599198102951,0.25078803300857544,0.021185746416449547,0.13791972398757935,0.0931779071688652,0.046063635498285294,0.042566701769828796,0.030227670446038246,0.027863843366503716,-0.38026466965675354,-0.046208739280700684,-0.11286082863807678,0.07259399443864822,-0.6770964860916138,-0.009955820627510548,-0.16752229630947113,0.12328322231769562,-0.7690837979316711,0.007515550125390291,-0.1493784636259079,0.01777726039290428,-0.55101478099823,-0.07482768595218658,-0.09445738792419434,0.17809253931045532,0.0496525913476944,0.057018764317035675,0.04137277603149414,-0.2695175111293793,0.08820430934429169,0.062302350997924805,0.09865204989910126,-0.15860433876514435,0.10480935126543045,0.03933626040816307,0.03569954261183739,-0.06391837447881699,0.1404106467962265,0.008431264199316502,0.01852821744978428,0.009967023506760597,0.20979537069797516,-0.03392614796757698,0.04189480468630791,0.06985823065042496,0.17498452961444855,-0.04351372644305229,0.0675116702914238,0.17401868104934692,0.1228557825088501,-0.01727038249373436,0.02047278918325901,0.10878671705722809,0.20588847994804382,-0.055636875331401825,0.0026702890172600746,0.1635972112417221,-0.01993768848478794,-0.0032660258002579212,-0.14616240561008453,0.02730650082230568,0.14305707812309265,-0.02983376383781433,-0.03830954059958458,0.017191527411341667,0.23010419309139252,0.019977157935500145,-0.22839538753032684,0.03618168085813522,0.15979352593421936,0.016188969835639,-0.30359163880348206,-0.00021230203856248409,0.14844612777233124,-0.022597448900341988,-0.25489866733551025,-0.014468523673713207,0.029545577242970467,0.030785076320171356,-0.10884572565555573,0.005865027196705341,0.030495023354887962,-0.02963678166270256,0.04623079672455788,-0.045900557190179825,0.03168739005923271,0.00581736583262682,0.07025457173585892,-0.1536150872707367,-0.2772086560726166,0.04663994163274765,-0.01590367779135704,-0.17171405255794525,-0.16166216135025024,-0.02386137843132019,-0.025293661281466484,-0.14322321116924286,-0.16653931140899658,-0.023927297443151474,-0.01801532320678234,-0.15300846099853516,-0.3247135281562805,-0.05481588467955589,0.055128712207078934,-0.16363777220249176,-0.06905381381511688,-0.061830878257751465,0.007869891822338104,-0.14825811982154846,0.13181236386299133,-0.015534315258264542,0.0002774879976641387,-0.15478254854679108,0.15891112387180328,-0.017815623432397842,-0.022999992594122887,-0.1588752716779709,0.4019232988357544,-0.026069074869155884,0.0215785913169384,-0.13020452857017517,-0.09351348131895065,-0.031368810683488846,0.007628560531884432,0.14290787279605865,-0.09367325156927109,0.07933786511421204,0.08962122350931168,0.08907369524240494,0.1593814194202423,0.01936252787709236,0.15953321754932404,0.10955143719911575,0.08785312622785568,-0.02529877796769142,0.07452826201915741,0.04626670852303505,-0.0961412712931633,-0.02236395888030529,-0.038052722811698914,0.032170068472623825,-0.1405128836631775,-0.04907666891813278,-0.2021436244249344,0.08887984603643417,0.023440439254045486,-0.029880044981837273,-0.16787683963775635,0.09385140985250473,-0.014198851771652699,-0.018618926405906677,0.032995209097862244,0.1005193293094635,-0.15573559701442719,0.024030977860093117,0.1824844926595688,-0.11095038801431656,-0.03429402410984039,-0.012915884144604206,0.08314236253499985,0.005366242490708828,-0.0049948664382100105,-0.008140583522617817,0.13496144115924835,0.029322175309062004,0.23037077486515045,-0.0856836661696434,0.06612198799848557,0.10541501641273499,0.21358011662960052,-0.022802265360951424,0.1120542362332344,0.09325364977121353,-0.0933351144194603,0.009945308789610863,0.04206634685397148,-0.0531403049826622,0.10835239291191101,0.04702472314238548,0.12713034451007843,-0.1953345686197281,0.6792777180671692,-0.021943915635347366,0.05917602404952049,0.01899406872689724,-0.03763636201620102,-0.00931753870099783,0.09602365642786026,-0.006055646575987339,0.060240376740694046,0.023647872731089592,0.02128852903842926,-0.06000529229640961,0.046397048979997635,-0.03670388087630272,-0.0786220133304596,-0.03823290765285492,0.06396216154098511,-0.02258874475955963,-0.08701254427433014,-0.03583021089434624,0.01750136725604534,-0.013701701536774635,-0.1994679719209671,-0.07259507477283478,0.15956811606884003,-0.034324999898672104,-0.1434478759765625,-0.052394378930330276,0.012582791969180107,-0.05306977778673172,-0.046900585293769836,0.004832688719034195,0.10412359237670898,-0.028239073231816292,0.043349944055080414,0.04028824344277382,-0.1872435361146927,-0.03737818822264671,0.04848400130867958,-0.29138100147247314,-0.06147828325629234,0.039541736245155334,-0.01753915473818779,-0.2323324829339981,-0.039076026529073715,-0.008177431300282478,0.017355358228087425,-0.16240885853767395,-0.07516162097454071,0.00016706004680600017,0.0051246704533696175,-0.07317697256803513,-0.10613194853067398,-0.016136031597852707,-0.01448286883533001,-0.033293984830379486,-0.013667951337993145,-0.05316637083888054,0.014268767088651657,0.0044035036116838455,-0.19739525020122528,0.005636389367282391,0.009077188558876514,0.01783117838203907,-0.20896507799625397,-0.008883597329258919,0.01503672543913126,-0.1004771888256073,0.01906728371977806,0.032648757100105286,0.09167252480983734,-0.011970958672463894,-0.13560335338115692,0.0075844149105250835,0.19030901789665222,-0.04502846673130989,0.0161577258259058,0.004830615594983101,0.12888792157173157,-0.045927565544843674,-0.053233593702316284,-0.049306921660900116,0.06273546069860458,0.037901073694229126,0.0013474569423124194,-0.023478979244828224,-0.07017400115728378,-0.03943716362118721,0.07961247116327286,0.00039440757245756686,-0.4875079393386841,0.01658349111676216,0.09278763830661774,-0.02110479027032852,-0.6883700489997864,-0.09940031170845032,0.10078321397304535,0.0018605017103254795,-0.5718721151351929,-0.10580098628997803,-0.05709683895111084,-0.037503477185964584,-0.00858150701969862,-0.07287489622831345,-0.34194865822792053,0.001277600764296949,-0.016520904377102852,0.03678567707538605,-0.3838944435119629,0.01941407099366188,0.0019994047470390797,0.0007902576471678913,0.10188022255897522,0.056756407022476196,-0.07120534777641296,0.005235098768025637,0.42852404713630676,-0.0035957819782197475,-0.0009135556174442172,-0.09726227074861526,0.306682288646698,-0.020680833607912064,-0.021567560732364655,-0.1840585619211197,-0.24538925290107727,0.06603987514972687,0.023176159709692,-0.31369850039482117,-0.4193936884403229,0.061383720487356186,-0.029872791841626167,-0.28193944692611694,0.12673510611057281,0.1322368085384369,0.09900354593992233,-0.0011281011393293738,0.21232910454273224,0.06584154814481735,0.07040152698755264,0.07117918133735657,0.09989265352487564,0.014688110910356045,0.02291063405573368,0.013370448723435402,-0.2916407585144043,0.061785850673913956,0.008480495773255825,0.020665999501943588,-0.5334066152572632,0.03715777397155762,0.141654372215271,0.04424960911273956,-0.33285900950431824,-0.003286185674369335,0.21894092857837677,0.0363486111164093,0.14540933072566986,0.04730816185474396,0.2056770622730255,-0.07427729666233063,0.4029526114463806,0.029982713982462883,0.09982944279909134,-0.03182490915060043,0.2328379899263382,-0.050765614956617355,0.1449342519044876,-0.11382029205560684,0.04279299080371857,0.04903982952237129,0.01813361421227455,-0.009602424688637257,-0.11452589929103851,0.0316665843129158,0.1211097463965416,-0.0007765214540995657,-0.19780266284942627,0.0015457432018592954,0.10001880675554276,-0.07362408936023712,-0.18383711576461792,-0.009217442944645882,0.11805161088705063,-0.018751105293631554,-0.10860314965248108,-0.002702825702726841,0.12833814322948456,-0.176133930683136,-0.1629544347524643,-0.01651611179113388,0.17155534029006958,-0.20670440793037415,-0.16760563850402832,-0.05602883920073509,0.10947241634130478,-0.11593084782361984,0.12030933052301407,-0.001702314242720604,0.1043829619884491,-0.04270603880286217,0.1126256212592125,-0.0455939844250679,0.18713726103305817,0.0725691169500351,-0.01383303478360176,-0.01053228136152029,0.23184065520763397,0.12297596037387848,-0.08323660492897034,-0.0024096565321087837,0.23757308721542358,0.09887132048606873,-0.052756935358047485,-0.02714345045387745,0.11302624642848969,0.1715601086616516,0.041138604283332825,-0.006338409148156643,0.06115707382559776,0.20379185676574707,0.27844002842903137,0.02207796461880207,0.10940338671207428,0.14801940321922302,0.4611127972602844,-0.03462030738592148,0.00008498640090692788,0.15699471533298492,0.06278717517852783,-0.1637643575668335,-0.09872456640005112,-0.004016717430204153,0.008613861165940762,-0.028762396425008774,-0.06136004254221916,-0.04247105494141579,0.06328435242176056,-0.051351260393857956,0.035547297447919846,0.016443388536572456,0.07744244486093521,-0.16861142218112946,-0.0048162369057536125,0.05292697623372078,0.18931657075881958,-0.13573472201824188,-0.019964052364230156,0.10597070306539536,0.17146866023540497,-0.08327334374189377,-0.023719806224107742,0.10395154356956482,0.09887299686670303,-0.08175071328878403,-0.03276265040040016,0.08679548650979996,-0.040012940764427185,-0.08493585884571075,0.026724208146333694,0.18895645439624786,-0.11774486303329468,-0.06534357368946075,-0.37843647599220276,0.009683246724307537,-0.07592213153839111,-0.00834411196410656,-0.3167371451854706,-0.005742046050727367,-0.1195283755660057,0.005794363096356392,-0.3844049572944641,0.05444810166954994,-0.029339145869016647,0.05601303651928902,-0.28701645135879517,0.03224983811378479,-0.06560689955949783,0.10365806519985199,-0.22218932211399078,0.0485089011490345,-0.01704353652894497,0.034663375467061996,-0.2143498659133911,0.02709166333079338,-0.030323319137096405,-0.09729351848363876,-0.194676473736763,0.0054869577288627625,0.15969842672348022,-0.05945578217506409,-0.03357335925102234,0.018370645120739937,-0.06490688771009445,-0.07871972024440765,0.053174544125795364,0.056174322962760925,0.18555955588817596,-0.06486772000789642,0.0602116659283638,0.14421884715557098,-0.033398568630218506,-0.005417027976363897,0.027334561571478844,0.07303746789693832,0.00545888114720583,0.017421619966626167,0.052616946399211884,0.026845455169677734,0.1418108195066452,-0.005441746674478054,-0.06884067505598068,0.018907716497778893,0.12827907502651215,-0.038846392184495926,-0.04787435010075569,-0.07676243036985397,0.16825947165489197,-0.0800921842455864,-0.0466734953224659,-0.024424253031611443,0.0875156819820404,0.05358390137553215,-0.007483602501451969,-0.014773355796933174,-0.03507059067487717,0.04930303245782852,-0.028513018041849136,0.14672596752643585,0.06691073626279831,0.06739243119955063,0.021250436082482338,-0.0016101229703053832,0.22117578983306885,0.04538343846797943,0.021980518475174904,0.04383083060383797,0.09761957824230194,0.006399238482117653,-0.04315619543194771,0.09233316779136658,0.017012247815728188,-0.03286048397421837,-0.0678168460726738,0.03289349004626274,-0.19297373294830322,-0.008487937971949577,-0.11367836594581604,0.06241261959075928,-0.3201582133769989,-0.006536510307341814,-0.13766014575958252,0.02981639839708805,-0.3464697003364563,-0.05366528034210205,-0.11412699520587921,0.07905685156583786,-0.019016165286302567,0.03532155975699425,0.11028432846069336,-0.21146005392074585,-0.03327513486146927,0.03259459510445595,0.03478915989398956,-0.07858080416917801,-0.02330728806555271,-0.009760100394487381,0.07964780181646347,0.011835196055471897,0.03078106977045536,-0.006070885341614485,0.08639176189899445,0.06037568300962448,0.11297019571065903,0.0004647296736948192,0.0854806900024414,0.22305235266685486,0.096677765250206,-0.0033257442992180586,0.0911257266998291,0.24100808799266815,0.0422983393073082,-0.05877088010311127,0.008696075528860092,0.2573052942752838,0.18848712742328644,-0.009600098244845867,0.09910982847213745,0.18346653878688812,-0.10216307640075684,0.025939732789993286,0.08303266763687134,0.003958120476454496,-0.002265756716951728,0.025807645171880722,-0.09658420830965042,0.06779062002897263,-0.013313019648194313,0.01636127196252346,-0.22987504303455353,0.0557112991809845,-0.028115613386034966,0.036025457084178925,-0.3476618826389313,-0.019738560542464256,0.028333673253655434,-0.020275576040148735,-0.19612394273281097,-0.011325000785291195,0.07394152879714966,-0.02163376472890377,-0.06476777046918869,-0.06148017570376396,0.18390846252441406,-0.007437907624989748,0.07186295837163925,-0.054708730429410934,0.06686121225357056,-0.039871945977211,0.08022655546665192,-0.07916246354579926,-0.3836445212364197,0.07236296683549881,-0.00572932930663228,-0.10660935938358307,-0.30716246366500854,-0.0002806044649332762,-0.029745886102318764,-0.15766416490077972,-0.40075165033340454,0.016770455986261368,0.003039931645616889,-0.11474830657243729,-0.3434313237667084,0.029019903391599655,0.005203458480536938,-0.15155932307243347,-0.12641718983650208,0.006883116438984871,-0.0027318026404827833,-0.16295140981674194,0.10744281858205795,0.040858931839466095,0.03739216551184654,-0.1433260142803192,0.28112727403640747,0.033635225147008896,0.06329946219921112,-0.05700064077973366,0.6294963955879211,-0.0006322783301584423,0.08017110079526901,0.04135509952902794,-0.20380401611328125,0.06376232206821442,-0.015225894749164581,0.22385525703430176,-0.10755851119756699,0.00587405264377594,0.02786644920706749,0.13114847242832184,0.27703428268432617,0.01620308868587017,0.08597832173109055,0.12276599556207657,0.2633860111236572,0.040915071964263916,0.035344287753105164,0.09242004156112671,0.01865202561020851,0.041745319962501526,-0.09506095945835114,0.06768026947975159,-0.15884728729724884,0.0007558233919553459,-0.23930151760578156,0.13240301609039307,-0.19198185205459595,-0.03271251171827316,-0.22156116366386414,0.10201378911733627,-0.22665604948997498,-0.03290092200040817,-0.044335346668958664,0.10446223616600037,-0.11318740248680115,0.031177638098597527,0.1362302005290985,-0.07814504206180573,-0.031642645597457886,-0.01800355315208435,0.19174611568450928,-0.05860913172364235,0.016610119491815567,-0.009283050894737244,0.16326607763767242,0.09624745696783066,0.33749276399612427,-0.010807140730321407,0.2163710743188858,0.11677469313144684,0.2665659189224243,-0.003840565448626876,0.23458144068717957,-0.031013958156108856,0.022274326533079147,0.018846919760107994,0.041471436619758606,-0.21072572469711304,0.18659982085227966,0.04750405624508858,0.060405999422073364,0.02608449198305607,0.6269015669822693,0.022228356450796127,-0.029282506555318832,0.15250056982040405,-0.018729133531451225,0.013632032088935375,-0.02947518602013588,-0.13683167099952698,0.08721748739480972,-0.025611022487282753,-0.023897865787148476,-0.07172483205795288,-0.08132366091012955,-0.05724624544382095,-0.12185686826705933,-0.07336270064115524,-0.13758602738380432,-0.048704393208026886,-0.04618777707219124,0.006779718212783337,-0.1256137639284134,-0.02314194105565548,-0.13937927782535553,0.055109959095716476,0.12776249647140503,-0.0008241864270530641,-0.19831576943397522,0.0077484543435275555,0.00973487552255392,-0.027419503778219223,-0.08253993093967438,0.046615585684776306,0.09418490529060364,0.003374676452949643,-0.12346255034208298,0.14968140423297882,-0.2352563887834549,0.0049674902111291885,0.012559532187879086,-0.37564826011657715,-0.06505043059587479,0.059001337736845016,-0.02863655984401703,-0.22055304050445557,-0.07018906623125076,-0.05142442137002945,0.0441410206258297,-0.10258372128009796,-0.10333231091499329,0.007360030431300402,0.05297465994954109,0.03281666338443756,-0.11019651591777802,-0.039574116468429565,0.03519374132156372,-0.058991409838199615,0.007251329254359007,0.020356183871626854,0.08918122947216034,-0.10041303187608719,0.05362987145781517,0.01670791767537594,0.10514724999666214,-0.1946999728679657,-0.051002174615859985,0.0002477930684108287,0.09373937547206879,-0.30754607915878296,0.20654022693634033,0.04344921186566353,0.10625889897346497,-0.0016698064282536507,-0.049780093133449554,0.013749415054917336,0.21443268656730652,0.0479300431907177,0.0614425428211689,-0.030592055991292,0.25029921531677246,0.02468247339129448,0.004650627262890339,-0.02335500530898571,0.13671281933784485,0.051929548382759094,-0.04375426098704338,-0.058315373957157135,-0.0993572473526001,0.1372760832309723,-0.09800761938095093,-0.060544271022081375,-0.2858079969882965,0.06903237104415894,0.016471097245812416,-0.01832965575158596,-0.44418907165527344,-0.007004481740295887,0.04916969686746597,0.009017554111778736,-0.35008177161216736,0.01228717528283596,-0.16027571260929108,0.018411945551633835,-0.020246783271431923,0.07037926465272903,-0.1895257532596588,0.062076881527900696,0.017460018396377563,0.07179174572229385,-0.20097604393959045,0.03757505118846893,-0.02065262943506241,0.004130265209823847,0.17744839191436768,0.040117040276527405,-0.06663160771131516,-0.03756510466337204,0.3268495202064514,-0.0033269135747104883,0.04795828461647034,-0.12577955424785614,0.19596046209335327,-0.012163294479250908,0.023307032883167267,-0.20924681425094604,-0.29855549335479736,-0.005684451665729284,0.005044769030064344,-0.23092201352119446,-0.504000723361969,-0.012574652209877968,0.0011753186117857695,-0.33044347167015076,0.3454222083091736,0.0355171374976635,0.1208493635058403,0.1333562731742859,0.08894268423318863,0.016784604638814926,0.10881870239973068,0.13501973450183868,-0.23687872290611267,-0.013031629845499992,-0.0366036631166935,0.01915079914033413,-0.5287268161773682,0.018473193049430847,-0.11370057612657547,-0.019187116995453835,-0.5972176194190979,-0.04994449019432068,0.0863141417503357,-0.029851466417312622,-0.1903344988822937,0.021585341542959213,0.1866181641817093,0.021871166303753853,0.32369863986968994,0.04220859706401825,0.2107953131198883,-0.012272750027477741,0.5488294363021851,0.04733695834875107,0.11152710020542145,-0.026704300194978714,-0.10884483903646469,0.007568669971078634,0.015855543315410614,-0.13431818783283234,-0.01407482661306858,0.040011607110500336,0.05276736989617348,-0.10598011314868927,0.03502115607261658,0.05743074044585228,0.08894729614257812,-0.06137241795659065,-0.008455333299934864,0.005670645274221897,0.1062132716178894,-0.04029693454504013,-0.11043628305196762,0.051764748990535736,0.13975411653518677,-0.11697404086589813,-0.07260023802518845,0.0777757540345192,0.24942658841609955,-0.03862850368022919,0.020010322332382202,0.05018796771764755,0.20022287964820862,-0.014219466596841812,0.06847858428955078,-0.0459020622074604,0.2127508968114853,0.07274986058473587,-0.21199946105480194,-0.034636083990335464,0.041888490319252014,0.03346225991845131,-0.07829885184764862,0.02301027812063694,0.05361471697688103,0.10874343663454056,0.17151640355587006,0.0017041501123458147,0.08692217618227005,0.1292734295129776,0.21355114877223969,-0.0163696501404047,0.09896431863307953,0.0824054405093193,0.06628894805908203,0.04026821628212929,0.1074276864528656,0.07791835069656372,0.05134332925081253,0.024408580735325813,0.04070235416293144,0.15916116535663605,-0.03843295946717262,0.029928535223007202,0.03645467013120651,0.07993706315755844,-0.13143888115882874,-0.02510463260114193,0.03787464648485184,0.07957790046930313,-0.08776893466711044,-0.03263939172029495,-0.07560668885707855,0.0026435593608766794,-0.10469735413789749,0.02700749598443508,-0.06582445651292801,-0.07220464199781418,-0.0499761626124382,0.03240001201629639,-0.0521203875541687,0.05800652876496315,-0.07537419348955154,-0.029337359592318535,-0.032374728471040726,0.0642794743180275,0.025772828608751297,-0.04183993116021156,-0.01513754203915596,0.11111506074666977,0.1236952692270279,-0.06254753470420837,-0.054481033235788345,0.047989703714847565,0.1338716745376587,-0.11459115147590637,-0.028755782172083855,0.07363615930080414,0.11284800618886948,-0.08344441652297974,-0.04298320785164833,0.15659214556217194,-0.04641958698630333,-0.12016052007675171,-0.08966536819934845,-0.003521622158586979,-0.142942875623703,0.008818842470645905,-0.15503647923469543,0.02439046837389469,-0.2610403597354889,0.1066826730966568,0.027739407494664192,0.020282497629523277,-0.17332519590854645,0.127865269780159,0.04439418762922287,0.03329160064458847,-0.10688970983028412,0.13217805325984955,0.03958013653755188,-0.038905274122953415,-0.02323356457054615,0.09800276905298233,-0.08417695015668869,0.07525854557752609,-0.03618656098842621,0.03450021147727966,-0.04549096152186394,0.016063999384641647,0.3088817298412323,-0.0468912236392498,-0.03690824657678604,-0.029184460639953613,-0.06489086896181107,-0.043691184371709824,0.04373025521636009,-0.0578845739364624,0.0408487543463707,-0.02642294578254223,-0.014566549099981785,-0.0017300288891419768,-0.045119840651750565,0.005397000350058079,0.007546350359916687,-0.0004138883377891034,-0.0026873706374317408,0.07970891147851944,-0.02991277538239956,0.010237138718366623,0.013208447024226189,0.04215841367840767,-0.04289090260863304,0.027818996459245682,0.15690523386001587,-0.016504250466823578,-0.007894209586083889,-0.014731653966009617,0.2492794692516327,-0.024584384635090828,0.0001168331436929293,0.045407265424728394,-0.08699917793273926,-0.025288822129368782,-0.0023095684591680765,-0.05566753074526787,-0.07770635187625885,0.035390980541706085,0.07222575694322586,0.008678951300680637,-0.07343865185976028,0.008658201433718204,0.1629955917596817,-0.026813598349690437,0.08619876950979233,0.011669243685901165,0.3015323579311371,0.051544513553380966,0.0897115096449852,0.03694259375333786,0.2112332284450531,-0.05560888350009918,0.12906964123249054,-0.015235235914587975,0.11473159492015839,0.07620903849601746,0.12504985928535461,-0.011128492653369904,0.019107669591903687,0.02024807222187519,0.10844375938177109,-0.04565590247511864,-0.11241883039474487,0.05128907039761543,0.016086069867014885,-0.11041416227817535,-0.07452009618282318,0.03667186573147774,-0.02313842438161373,0.03233402967453003,0.1553102433681488,-0.06718804687261581,-0.021145207807421684,0.0027878053952008486,0.0702541396021843,0.11590822041034698,-0.020442286506295204,0.06565253436565399,0.08502966165542603,0.1824379414319992,-0.03036671131849289,-0.004529750440269709,0.08340004831552505,0.029398063197731972,0.0505819097161293,-0.051427796483039856,0.12009020894765854,-0.1354040950536728,0.07718231528997421,0.000649204186629504,0.010203889571130276,-0.20917056500911713,0.06140608340501785,-0.014283078722655773,-0.026311524212360382,-0.06894853711128235,0.10928729921579361,-0.06669888645410538,0.10593100637197495,-0.08368947356939316,-0.16507327556610107,0.03206915780901909,-0.01682143658399582,0.021111920475959778,0.006314709782600403,0.07256123423576355,-0.11058520525693893,-0.014296425506472588,-0.028593050315976143,0.023360809311270714,-0.13708829879760742,0.024959279224276543,-0.10606151819229126,0.057757262140512466,-0.23173360526561737,-0.02223920077085495,-0.09250721335411072,-0.029369521886110306,-0.09104595333337784,-0.05354483425617218,-0.08407144248485565,-0.018421001732349396,-0.02722834423184395,-0.10123741626739502,0.0770321935415268,-0.006501104682683945,0.11942008137702942,-0.03239240124821663,-0.054025255143642426,-0.021659765392541885,0.1134050190448761,-0.10086598992347717,-0.22928375005722046,-0.010270937345921993,0.047540318220853806,-0.14875486493110657,-0.27965179085731506,-0.04679407551884651,0.007882761768996716,-0.0837913379073143,-0.4694118797779083,0.033114247024059296,0.01263324823230505,-0.11233366280794144,-0.2998957931995392,-0.0020546400919556618,0.06526559591293335,-0.08947410434484482,0.027250908315181732,0.01439716387540102,0.023740436881780624,-0.055547233670949936,0.22898243367671967,0.02531866356730461,-0.022213276475667953,-0.009384247474372387,0.2961038649082184,-0.0037415768019855022,-0.060147643089294434,0.033776719123125076,0.7259633541107178,0.052895400673151016,-0.020528554916381836,0.13587620854377747,-0.25900784134864807,-0.00405562948435545,0.15758077800273895,0.25261247158050537,0.11020912975072861,0.02901379019021988,0.024890437722206116,0.16632884740829468,0.4216707944869995,-0.014559885486960411,0.036614831537008286,0.12994185090065002,0.4473046660423279,0.016228096559643745,-0.06644120812416077,0.08173716813325882,0.08960042148828506,0.020968742668628693,-0.06416262686252594,0.018132371827960014,-0.25318053364753723,-0.05634582042694092,-0.2224276214838028,0.0035783450584858656,-0.5103418231010437,-0.06218308210372925,-0.2249922752380371,0.015281595289707184,-0.5081731081008911,-0.015139981172978878,-0.040637049823999405,0.04952874034643173,-0.09291020035743713,0.004221865441650152,0.10063440352678299,-0.12855491042137146,0.0407123826444149,0.03321823477745056,0.18950684368610382,-0.029997874051332474,0.14695560932159424,0.007995015010237694,0.25401949882507324,0.024041611701250076,0.1663055717945099,-0.005659563932567835,0.1873154491186142,-0.10226911306381226,0.09822695702314377,0.014272932894527912,0.19141054153442383,-0.20201335847377777,-0.04788282513618469,0.0644841343164444,0.1042030081152916,-0.09982683509588242,0.19217289984226227,0.022591112181544304,0.0196261927485466,0.13888393342494965,0.5269883871078491,0.07035191357135773,0.013073998503386974,0.03864869475364685,-0.06994348764419556,0.018548207357525826,-0.18844006955623627,-0.04300975427031517,0.022189263254404068,-0.03665785863995552,0.013968033716082573,-0.005434899125248194,-0.060963571071624756,-0.04922974109649658,-0.041036661714315414,0.02036523073911667,-0.2059638947248459,-0.06471747905015945,-0.07363392412662506,0.07953450828790665,-0.062221162021160126,0.009454995393753052,-0.0795893520116806,0.015434078872203827,0.16352640092372894,-0.038679663091897964,0.021132847294211388,-0.006286181975156069,0.03648790717124939,-0.01872757449746132,-0.13752464950084686,-0.011656329967081547,0.2682070732116699,-0.008657252416014671,-0.14968015253543854,0.07978380471467972,-0.06095188483595848,-0.01408078707754612,0.023234492167830467,-0.25366657972335815,-0.038920119404792786,-0.0261976458132267,0.08843261003494263,-0.15967193245887756,-0.047578562051057816,-0.029186367988586426,0.16656817495822906,-0.0752360075712204,-0.12887372076511383,-0.03242245316505432,0.175942525267601,-0.054147787392139435,-0.06884519010782242,-0.03864715248346329,0.16219300031661987,-0.03649379685521126,0.07623326033353806,0.006593694444745779,0.14781972765922546,-0.07428660988807678,0.028836889192461967,-0.009581347927451134,0.04252931848168373,-0.04333416000008583,0.08649729192256927,0.004088456742465496,0.10546614229679108,-0.04058939591050148,0.3764505684375763,-0.023916173726320267,0.15495671331882477,-0.017043067142367363,-0.03280852362513542,0.014943309128284454,0.1764765977859497,0.07696697115898132,0.07116727530956268,0.01403192151337862,0.09787076711654663,0.08642657101154327,0.05261991173028946,-0.04514393210411072,0.027761362493038177,0.09641344100236893,0.001892858766950667,-0.010598904453217983,-0.012973608449101448,0.11769585311412811,-0.09782714396715164,-0.059431444853544235,-0.1502763032913208,0.09694220125675201,0.007525247987359762,-0.029248321428894997,-0.22263550758361816,0.030236724764108658,-0.11232570558786392,-0.0412309393286705,-0.20068740844726562,-0.06419482827186584,-0.1959097981452942,-0.0057237837463617325,0.03494632989168167,0.1280985325574875,-0.06649340689182281,-0.02448497712612152,0.03105439618229866,0.1161186546087265,-0.12175482511520386,0.006755364593118429,0.019139477983117104,0.031738270074129105,0.05502336099743843,0.0002186429628636688,0.022601719945669174,-0.03310270980000496,0.16317857801914215,-0.03248447924852371,0.039835646748542786,0.007677535526454449,0.19199322164058685,-0.019669556990265846,0.010973182506859303,0.017602495849132538,-0.04341309890151024,0.03371937945485115,-0.013874765485525131,0.12490774691104889,-0.3757447600364685,0.01710354909300804,-0.08417990058660507,0.07346352189779282,0.4711478352546692,-0.0010756958508864045,-0.10124451667070389,0.17321491241455078,-0.08464426547288895,-0.0346856489777565,-0.18632185459136963,0.18107099831104279,-0.2588704228401184,0.03031170554459095,-0.13369078934192657,0.02565789967775345,-0.4246140718460083,0.017026778310537338,-0.11099609732627869,0.09604724496603012,-0.4335205554962158,0.004294534679502249,-0.04842841997742653,-0.12183056771755219,-0.1383521556854248,-0.01481106597930193,0.10225073993206024,0.02961784042418003,0.32080578804016113,-0.05674714967608452,0.07661125063896179,0.04006098210811615,0.5572452545166016,-0.015991894528269768,0.08347314596176147,0.02429252304136753,-0.05054767429828644,0.03455108776688576,0.016526831313967705,-0.13917729258537292,0.013341478072106838,0.022734658792614937,0.030897099524736404,-0.1498892456293106,-0.018977103754878044,-0.01847093738615513,0.07935638725757599,-0.07108717411756516,0.0026980293914675713,0.04698780179023743,0.03260764852166176,-0.020042886957526207,-0.005187279544770718,0.005975492298603058,0.17159907519817352,-0.021450761705636978,-0.01972011849284172,0.09810961037874222,0.23505838215351105,0.025261083617806435,0.06296229362487793,0.017970845103263855,0.1536944955587387,0.1304807960987091,-0.03519643098115921,0.05043890327215195,0.07782646268606186,0.11826570332050323,0.01868496835231781,-0.0018622298957780004,-0.014694493263959885,0.11389096081256866,0.09579546004533768,-0.0035594527143985033,0.0491228848695755,-0.00023811092250980437,0.15332533419132233,0.02702380158007145,0.06559877097606659,0.0386478528380394,0.16329513490200043,-0.03910159319639206,0.00404903432354331,0.11743410676717758,0.18011288344860077,0.01347664836794138,0.03271402418613434,0.17653992772102356,0.14904756844043732,-0.015260194428265095,0.02844112552702427,0.1393483728170395,0.045666828751564026,0.01717511937022209,-0.05157261714339256,0.12017633765935898,-0.015893874689936638,0.005689515266567469,0.03941949084401131,-0.05342060327529907,-0.049177367240190506,-0.0709167867898941,-0.08963783830404282,0.05706778168678284,-0.09666845202445984,0.004905498120933771,-0.09998707473278046,0.0009635208989493549,-0.030565761029720306,0.04015576094388962,-0.09608587622642517,-0.0009080326417461038,-0.03198101744055748,0.04984740540385246,-0.11037034541368484,0.027982158586382866,-0.01828799583017826,0.04319094121456146,-0.08281894028186798,0.08248069137334824,0.10885656625032425,0.04633506014943123,-0.09678380191326141,0.032018184661865234,0.059539519250392914,0.007760545238852501,-0.06636665761470795,0.001675552106462419,-0.054226551204919815,-0.06853305548429489,-0.006047258619219065,0.06735275685787201,-0.000974413298536092,-0.15966014564037323,0.14232176542282104,-0.004391051828861237,-0.1535550206899643,-0.049748118966817856,0.06220579147338867,-0.013487701304256916,-0.34366506338119507,0.006475288420915604,0.07664304226636887,0.043181177228689194,-0.22504712641239166,0.10927014797925949,0.17979753017425537,0.015329260379076004,-0.1431964784860611,0.1499437689781189,0.056807659566402435,0.05264370143413544,-0.16919292509555817,0.1169639453291893,0.047141239047050476,0.040416419506073,0.002973999362438917,0.04930742457509041,0.12894095480442047,0.031519386917352676,0.49006885290145874,-0.026178399100899696,0.07809717953205109,0.04657387733459473,-0.14054346084594727,-0.04687976837158203,-0.012283378280699253,-0.012041900306940079,-0.013464723713696003,-0.048892877995967865,-0.015896273776888847,-0.003638884285464883,-0.030078647658228874,-0.008976656012237072,-0.026397358626127243,0.03953084722161293,0.015022216364741325,0.04471192881464958,-0.04190000519156456,0.08932049572467804,0.0530119352042675,0.04783445596694946,0.03377283737063408,0.10174056142568588,0.15182694792747498,0.046509094536304474,-0.06609388440847397,-0.03348595276474953,0.1345209926366806,0.001470714109018445,0.009100748226046562,-0.04577269405126572,-0.08073139190673828,0.009243671782314777,-0.0340021476149559,-0.09862685948610306,-0.07677730917930603,-0.021507050842046738,0.3531408905982971,-0.2437969446182251,-0.00199866178445518,0.004453900270164013,0.356052428483963,-0.35783034563064575,0.09024930745363235,0.027418227866292,0.3485347628593445,-0.36104097962379456,0.131863534450531,0.0696781724691391,0.25897035002708435,-0.1956760287284851,0.18534378707408905,0.01854444108903408,0.13080987334251404,-0.1325424611568451,0.0969865545630455,0.01116843894124031,-0.02283577062189579,-0.05837178975343704,0.14789555966854095,-0.005575899966061115,-0.1321643590927124,-0.0928259938955307,0.17992986738681793,-0.07421177625656128,-0.1279320865869522,0.052625443786382675,0.045725028961896896,0.06745641678571701,0.08536698669195175,0.1198316439986229,0.02601931057870388,0.06921898573637009,0.08275707811117172,0.13203221559524536,0.048110201954841614,0.09003706276416779,0.09892969578504562,-0.0013663758290931582,0.09764321893453598,0.023450925946235657,0.03653044253587723,-0.1890053004026413,0.08903013914823532,-0.054467298090457916,0.04454958811402321,-0.12003711611032486,0.073221355676651,-0.05740468576550484,0.014511878602206707,0.029027018696069717,0.030124260112643242,-0.024165133014321327,0.06801262497901917,-0.011965562589466572,0.01840493455529213,-0.021627774462103844,0.25837352871894836,-0.07673867046833038,-0.05778150632977486,0.09360592067241669,-0.02336062304675579,-0.06036490947008133,0.035087309777736664,-0.0011157514527440071,-0.038435593247413635,-0.06332724541425705,-0.025778668001294136,0.029293138533830643,-0.17206421494483948,-0.14454929530620575,-0.06897344440221786,-0.03566024452447891,-0.13425515592098236,-0.11971314996480942,-0.05609088018536568,0.014349203556776047,-0.04511750116944313,-0.09304641932249069,-0.06607698649168015,-0.02343497797846794,0.00643276609480381,-0.10381827503442764,-0.005058885086327791,-0.009957551956176758,0.05886074900627136,-0.03107987530529499,-0.17749279737472534,-0.04236110672354698,0.016343897208571434,-0.05070639029145241,-0.18140509724617004,0.0062016756273806095,0.019419945776462555,-0.07390458136796951,-0.22478941082954407,0.08787263184785843,-0.049409907311201096,-0.0021644739899784327,-0.3725392520427704,0.026429416611790657,-0.0007730432553216815,-0.006405618041753769,-0.3177708387374878,-0.021760273724794388,-0.047726377844810486,-0.01390508096665144,-0.0625578761100769,-0.004361101891845465,0.05385660007596016,-0.009144606068730354,0.12451367825269699,-0.036970559507608414,0.01850496418774128,0.0068174744956195354,0.18331463634967804,-0.03919334337115288,-0.0736704170703888,0.015524151735007763,0.4672549366950989,-0.02194918319582939,-0.031302906572818756,0.11872261017560959,-0.38777297735214233,0.029858127236366272,0.07387241721153259,0.20826533436775208,0.14853215217590332,-0.011285519227385521,0.012314886786043644,0.21874429285526276,0.41330888867378235,0.01853720098733902,-0.03463349491357803,0.08159095048904419,0.31538257002830505,-0.08087810128927231,-0.11218041926622391,0.019499173387885094,0.037411510944366455,-0.060432691127061844,-0.19293534755706787,-0.05738711357116699,-0.25809746980667114,-0.17790675163269043,-0.23247389495372772,-0.05672256648540497,-0.5219312310218811,-0.13535359501838684,-0.216970294713974,-0.04941851645708084,-0.7024346590042114,-0.07146911323070526,-0.0857289582490921,-0.026311300694942474,-0.09987306594848633,0.07114116102457047,0.1477993279695511,-0.11065246909856796,0.0004140714299865067,0.09534665197134018,0.24580273032188416,-0.009703627787530422,0.06216373294591904,0.02240188978612423,0.21738366782665253,-0.15820758044719696,0.10029739886522293,0.034745197743177414,0.19994382560253143,-0.2380146086215973,0.028227200731635094,-0.01191241480410099,0.12715046107769012,-0.22584977746009827,0.10887600481510162,-0.052779670804739,0.07655423879623413,0.09018649905920029,0.1965564340353012,-0.005960874259471893,0.042722780257463455,0.18406318128108978,0.4275037348270416,0.009749908931553364,-0.010505652986466885,0.028114771470427513,-0.16491088271141052,0.025608478114008904,-0.1257963627576828,0.04050695523619652,-0.08237998187541962,0.0054726083762943745,-0.12787917256355286,0.05666472390294075,-0.05177794024348259,0.04489941522479057,-0.006874800659716129,-0.04825611039996147,-0.16415709257125854,-0.02131986804306507,-0.03623339533805847,0.06647033989429474,-0.1501527577638626,0.008291705511510372,-0.0354764387011528,0.061997268348932266,-0.02775736339390278,-0.05027993023395538,0.004768156912177801,-0.00248090666718781,0.049961235374212265,-0.038852758705616,0.028867781162261963,-0.07382337003946304,0.524890124797821,0.05027569457888603,-0.10019070655107498,0.020745357498526573,0.12134289741516113,-0.024453405290842056,-0.020711850374937057,-0.15467746555805206,-0.01449508871883154,-0.01679021492600441,0.021882636472582817,-0.08776149898767471,-0.02493911422789097,-0.028865348547697067,0.14185917377471924,0.054861534386873245,-0.04241027310490608,-0.03560496121644974,0.20410068333148956,0.016426576301455498,0.02077610418200493,-0.00233297236263752,0.15719345211982727,-0.02380242943763733,0.06357985734939575,0.05090833827853203,0.1221664547920227,-0.058961350470781326,-0.03452969714999199,0.07080436497926712,0.09214725345373154,-0.0650615394115448,0.186071515083313,0.038726113736629486,0.03795057162642479,-0.011947623454034328,0.36034664511680603,0.002920705359429121,0.2054346352815628,0.03657551854848862,-0.032266855239868164,0.007276947144418955,0.12347052246332169,0.10090328752994537,-0.035895850509405136,0.013146950863301754,0.17222781479358673,0.1495412141084671,0.005581296980381012,0.01746424473822117,0.14530037343502045,0.07695798575878143,-0.029772192239761353,0.04286365956068039,-0.008856670930981636,0.10656727850437164,-0.049496959894895554,0.017525024712085724,-0.09816094487905502,0.1343437135219574,-0.06895903497934341,-0.04943474009633064,-0.032606661319732666,0.21727824211120605,-0.13021092116832733,0.00349148060195148,-0.06974586099386215,0.07868117094039917,-0.12659607827663422,-0.06415322422981262,0.038108717650175095,0.07302363961935043,0.047304052859544754,-0.037200894206762314,0.03873463720083237,0.1572561115026474,-0.13962841033935547,0.021899426355957985,0.0007465399685315788,0.011660638265311718,-0.016326118260622025,0.009057339280843735,0.10225332528352737,-0.04499264433979988,0.07008039951324463,0.05430544167757034,0.020756863057613373,0.13645952939987183,0.07411377131938934,0.06981244683265686,-0.07854795455932617,0.14747588336467743,-0.09027426689863205,0.053774844855070114,-0.06542771309614182,0.10260511934757233,-0.184317484498024,0.04793919250369072,-0.09654620289802551,0.14283053576946259,0.4401313066482544,-0.05144982039928436,-0.255788654088974,0.15986965596675873,-0.1522403359413147,0.01572885923087597,-0.34021511673927307,0.11968059837818146,-0.3488251864910126,0.014236081391572952,-0.2596047818660736,0.039747707545757294,-0.4472637176513672,-0.030934298411011696,-0.24797788262367249,-0.15145131945610046,-0.47712618112564087,-0.002807962242513895,-0.06455259025096893,-0.1283150166273117,-0.21128544211387634,-0.017404932528734207,-0.15214292705059052,-0.02035927213728428,0.17159616947174072,0.027755610644817352,-0.04012194648385048,0.03243401646614075,0.530950665473938,0.036806780844926834,0.03495558723807335,0.0040301005356013775,-0.005988729652017355,0.016057709231972694,-0.13974452018737793,-0.04427045211195946,-0.04393553361296654,0.01723257079720497,-0.006135714240372181,0.026483161374926567,-0.016942637041211128,0.04595745727419853,-0.026734523475170135,-0.04131542891263962,0.09283652156591415,0.013951110653579235,0.02772095799446106,-0.046874597668647766,0.017484817653894424,-0.045221246778964996,0.10398554801940918,0.017103444784879684,0.025970885530114174,-0.0016792924143373966,0.060285743325948715,-0.00908901821821928,0.06020846217870712,-0.026077358052134514,-0.04055628553032875,0.022822026163339615,-0.04438888654112816,-0.02192348800599575,-0.09054484963417053,0.030311884358525276,0.21456921100616455,-0.0057245646603405476,-0.06547388434410095,0.019354024901986122,0.17685601115226746,-0.00302931503392756,-0.00891184899955988,-0.03083319030702114,0.07804498076438904,0.07497157901525497,0.08127250522375107,0.02326050028204918,0.052653126418590546,0.002414166694507003,0.010458924807608128,0.0849214568734169,0.19441737234592438,0.059499673545360565,0.03266081586480141,0.14666780829429626,0.20922048389911652,-0.013591677881777287,0.025227773934602737,0.10263010859489441,0.23653697967529297,0.015439331531524658,0.054804541170597076,-0.016675975173711777,0.12839794158935547,-0.028326641768217087,0.07059308141469955,-0.02212521806359291,-0.13705125451087952,0.011256200261414051,-0.06907372921705246,0.09150420129299164,-0.05420359969139099,0.06508103013038635,-0.11819027364253998,0.015395283699035645,-0.07647688686847687,0.14646761119365692,-0.08746225386857986,-0.02231580577790737,-0.08407711982727051,0.05705400928854942,-0.044421207159757614,0.01473353710025549,-0.046338193118572235,0.06790527701377869,-0.038512423634529114,-0.03951943293213844,-0.03014248050749302,0.09672217071056366,0.004800277762115002,-0.06446893513202667,-0.007988388650119305,0.06163734570145607,0.009042586199939251,-0.03886531665921211,0.009818857535719872,0.07832561433315277,-0.010656176134943962,0.015888255089521408,0.012138054706156254,-0.07318221777677536,0.1742754429578781,-0.07044631987810135,-0.07821626216173172,0.041931673884391785,0.03863757103681564,0.006574086379259825,-0.18710307776927948,0.15959970653057098,0.09860825538635254,0.029157793149352074,-0.23926103115081787,0.1893218457698822,0.1599559336900711,0.0314643532037735,-0.22229954600334167,0.1385994255542755,0.07411323487758636,0.03515727072954178,-0.17475995421409607,0.1633126437664032,0.09730663150548935,0.037364717572927475,-0.05863747373223305,0.1520455777645111,0.035492025315761566,-0.03745397552847862,0.40421929955482483,0.2089497298002243,0.024374069646000862,-0.008138302713632584,-0.089327871799469,0.026453619822859764,0.01764841563999653,0.014020661823451519,-0.04297516494989395,0.056624069809913635,0.03126680850982666,0.057982657104730606,-0.02515924721956253,0.05845610797405243,-0.00019864040950778872,0.0395844429731369,-0.11129188537597656,0.12325194478034973,0.024220434948801994,0.03852592781186104,-0.010605246759951115,0.08259150385856628,0.029316190630197525,0.09685605019330978,0.1619270145893097,0.04811617359519005,0.003801590297371149,0.03131282329559326,0.18837155401706696,-0.05193096399307251,-0.01890571601688862,0.02007223106920719,0.10232546925544739,0.045322805643081665,-0.010564963333308697,-0.039210185408592224,-0.058804139494895935,0.0024830535985529423,0.3098292052745819,-0.5106054544448853,0.04740630090236664,0.03434326872229576,0.32283681631088257,-0.5910055637359619,0.12814173102378845,0.033967506140470505,0.17827673256397247,-0.44389215111732483,0.20983675122261047,-0.003142277942970395,0.09980059415102005,-0.4534774124622345,0.16564583778381348,0.006215386558324099,-0.10680760443210602,-0.29899173974990845,0.03310668095946312,-0.014745404943823814,-0.23056770861148834,-0.13998454809188843,0.11309520900249481,0.008843961171805859,-0.3359917104244232,0.05774295702576637,0.062097806483507156,0.0015366488369181752,-0.24505606293678284,-0.09321559965610504,0.0014796528266742826,0.039180487394332886,0.06911775469779968,0.13446448743343353,-0.003860843600705266,0.05132077634334564,0.1517592966556549,0.08896664530038834,0.0165041945874691,0.04100199043750763,0.19908618927001953,0.11255229264497757,0.004171949811279774,0.04875447601079941,0.09272731840610504,0.051534444093704224,-0.010718636214733124,0.022373663261532784,0.08777519315481186,0.03570326790213585,0.09342100471258163,0.022194406017661095,0.05823468416929245,-0.002347349189221859,0.012399856932461262,-0.024260349571704865,0.11001911014318466,-0.00018151011317968369,-0.04698335379362106,-0.029598955065011978,0.2471059262752533,-0.15969997644424438,-0.10225420445203781,0.09218129515647888,-0.016938069835305214,-0.09438876807689667,-0.08424989879131317,0.023862086236476898,-0.11828213185071945,-0.09350387752056122,-0.18583326041698456,0.07339850813150406,-0.10324862599372864,-0.10376793146133423,-0.050297416746616364,0.019838480278849602,-0.07468335330486298,-0.14131884276866913,-0.0017551284981891513,-0.011286345310509205,0.020525742322206497,-0.0767911896109581,-0.05538254976272583,0.0022984053939580917,0.04644034802913666,-0.10148792713880539,-0.07752693444490433,-0.025736980140209198,0.09364263713359833,-0.025512512773275375,-0.30367329716682434,-0.006189426407217979,0.027643179520964622,0.02473350614309311,-0.11426880210638046,-0.0354803204536438,-0.08772947639226913,0.10906008630990982,-0.17810481786727905,0.0036257398314774036,-0.05818123370409012,0.11199801415205002,-0.3259463310241699,-0.023931356146931648,-0.036320798099040985,0.09026443213224411,-0.3623674809932709,-0.07191456854343414,-0.063174307346344,-0.010375556536018848,-0.24286822974681854,-0.025132155045866966,-0.05164424329996109,0.02369200438261032,-0.1619521826505661,-0.04559407755732536,-0.09153926372528076,0.036280930042266846,-0.009529106318950653,-0.0647205039858818,-0.07894526422023773,0.053804393857717514,0.43029987812042236,-0.09383130073547363,-0.05140748247504234,0.08566442131996155,-0.34244251251220703,-0.05704670399427414,0.032757487148046494,0.13444508612155914,-0.0615280345082283,-0.011902778409421444,0.01592014543712139,0.09908287227153778,0.09791713953018188,0.015260085463523865,-0.06317752599716187,0.10395963490009308,0.20212940871715546,-0.059341367334127426,-0.14574605226516724,-0.06243925169110298,0.1329789012670517,-0.12204703688621521,-0.13511869311332703,-0.062383297830820084,-0.10489895939826965,-0.10132210701704025,-0.1279870569705963,-0.09171323478221893,-0.4895879328250885,-0.136980339884758,-0.09305979311466217,-0.05479549989104271,-0.6224398016929626,-0.09967435896396637,0.04101337492465973,0.04030746594071388,0.016241412609815598,0.0581650584936142,0.16804736852645874,-0.06181863695383072,0.019307736307382584,0.05469542741775513,0.12276624143123627,-0.07568138092756271,0.018535049632191658,-0.048289623111486435,0.1981811821460724,-0.15350128710269928,0.016306782141327858,0.03205882012844086,0.2297409474849701,-0.1459108144044876,0.02181985229253769,0.02907375991344452,0.14493592083454132,-0.02595856599509716,0.1161213368177414,0.02522505261003971,0.028805971145629883,0.014924945309758186,0.11342816054821014,-0.016101576387882233,-0.037966568022966385,0.11213961243629456,0.3989504277706146,-0.017970703542232513,-0.030027972534298897,-0.12042554467916489,-0.20714221894741058,0.03760228306055069,-0.08109645545482635,0.01223398745059967,-0.08425828069448471,0.0365680530667305,-0.10789851099252701,-0.03647482767701149,-0.02860664576292038,0.005306072533130646,-0.0832839161157608,-0.00586916645988822,-0.08073929697275162,-0.06184761971235275,-0.04684723541140556,-0.0057799722999334335,-0.15359120070934296,-0.008836550638079643,-0.11800836771726608,0.07839678227901459,-0.12566864490509033,0.006133745424449444,-0.09932932257652283,-0.042351119220256805,0.01803666166961193,0.005210669711232185,-0.13744467496871948,0.008248133584856987,0.7101140022277832,0.0002854206250049174,-0.10286261886358261,-0.019204573705792427,0.20654748380184174,-0.026744496077299118,0.03343311697244644,-0.023552415892481804,0.0422220379114151,0.06575306504964828,0.06891671568155289,-0.11856794357299805,0.022998053580522537,0.031900905072689056,0.1247963234782219,-0.08513710647821426,-0.007141444366425276,0.06061552092432976,0.12178792804479599,-0.01198557484894991,0.06649621576070786,0.07614997774362564,0.07059170305728912,0.055750519037246704,0.07713769376277924,0.09234820306301117,0.12885282933712006,-0.024686915799975395,0.014852561987936497,0.10630594193935394,0.11032573133707047,0.004196565132588148,0.12675273418426514,0.09545697271823883,0.015497683547437191,-0.03138928860425949,0.21777375042438507,-0.04157961905002594,0.15338461101055145,0.12328961491584778,0.021223777905106544,0.06162866950035095,0.11385051906108856,0.11690579354763031,0.012946032918989658,0.009736481122672558,0.11781584471464157,0.026235193014144897,0.000011143527444801293,-0.03051561675965786,0.11137422919273376,0.1492745280265808,-0.05229027941823006,0.04782308638095856,0.048101190477609634,0.20378540456295013,-0.07075051218271255,-0.004537659697234631,0.0054199546575546265,0.22042663395404816,-0.14102128148078918,-0.022671405225992203,0.02659647911787033,0.13830366730690002,-0.06297622621059418,-0.034931860864162445,0.001894093002192676,0.09162840247154236,-0.029416970908641815,0.0008145570755004883,-0.04151603579521179,-0.010646956972777843,-0.0089107109233737,0.04899194836616516,-0.02365092746913433,0.10273880511522293,-0.11127763986587524,0.06831350922584534,0.018608422949910164,0.04678594693541527,-0.11194069683551788,0.047945939004421234,-0.050745606422424316,0.02689959853887558,0.058145489543676376,0.056751977652311325,0.012940468266606331,0.03188430517911911,0.10637978464365005,0.08796984702348709,-0.14063575863838196,0.07619646191596985,0.04132195934653282,0.03883659467101097,-0.174264594912529,0.004464684519916773,-0.023909103125333786,0.0637265145778656,-0.1491136997938156,0.022500142455101013,0.2587316036224365,0.0011463981354609132,-0.2518314719200134,0.009931343607604504,-0.11970203369855881,-0.0472923181951046,-0.25418567657470703,-0.0216293353587389,-0.21057221293449402,0.03146175667643547,-0.23880530893802643,-0.04351101443171501,-0.36550408601760864,0.03425178676843643,-0.18233215808868408,-0.05575369670987129,-0.3576619327068329,0.024073665961623192,-0.1369285136461258,-0.022713009268045425,-0.28355881571769714,0.060111671686172485,-0.09551860392093658,-0.10520154237747192,-0.005952960811555386,0.08201821148395538,-0.08415564149618149,0.029931705445051193,0.2528987526893616,0.0760732889175415,-0.02140447497367859,-0.021217115223407745,-0.12216929346323013,0.010429276153445244,-0.12971524894237518,0.03455168753862381,-0.03037611022591591,0.003460993291810155,-0.048841461539268494,0.1040777936577797,-0.07525104284286499,0.04182941094040871,0.006592641118913889,0.007472758647054434,-0.03698885440826416,-0.03273339569568634,0.030126985162496567,-0.03833029791712761,-0.13082782924175262,-0.036184631288051605,0.05085199326276779,-0.00450693815946579,-0.14302945137023926,-0.0264558307826519,-0.053025614470243454,0.05299932882189751,-0.05895819142460823,0.029208196327090263,-0.06367319822311401,0.0032124705612659454,-0.07662175595760345,-0.005726904608309269,-0.15754427015781403,-0.02259090356528759,-0.049792684614658356,0.006426593288779259,-0.031609367579221725,-0.12337926775217056,-0.06093977764248848,0.025980377569794655,0.02012617141008377,-0.13350236415863037,-0.024562817066907883,0.020952308550477028,0.009234770201146603,-0.05926225706934929,0.020556539297103882,-0.0187032762914896,0.07694049179553986,0.02987523190677166,0.17045733332633972,0.044624149799346924,0.08889060467481613,0.15673737227916718,0.2587423026561737,0.03724367171525955,0.054391734302043915,0.05611914023756981,0.1475599706172943,-0.05041015148162842,0.15058302879333496,0.002658595098182559,-0.1044916957616806,-0.05724704638123512,0.07841402292251587,-0.013123415410518646,-0.11330342292785645,-0.10003269463777542,0.0650131031870842,0.0971406027674675,-0.0677088052034378,-0.04276769980788231,-0.0036772224120795727,0.08368056267499924,-0.05630170553922653,0.10899107158184052,0.024548368528485298,0.013303745537996292,-0.005881967954337597,0.09581618010997772,0.012744409963488579,-0.0483953133225441,-0.05421821027994156,0.13316495716571808,0.044692978262901306,-0.11143461614847183,-0.024471187964081764,0.14643318951129913,0.02450227364897728,-0.07036362588405609,0.011116798035800457,0.13218605518341064,0.04566669091582298,-0.04255788400769234,-0.001291313674300909,0.07737772166728973,0.04353024438023567,-0.11442437767982483,0.07143943011760712,-0.15679028630256653,-0.11378359794616699,-0.04506693035364151,0.03392847627401352,0.017431223765015602,-0.1654643565416336,-0.009622740559279919,-0.0013736633118242025,0.11097744852304459,-0.17681117355823517,-0.06705278158187866,-0.1930469423532486,0.21543237566947937,-0.09392859786748886,-0.016398364678025246,-0.18997104465961456,0.29213258624076843,0.014247195795178413,0.026459068059921265,-0.17188988626003265,0.25582247972488403,0.03633427619934082,0.007722096052020788,0.030363311991095543,0.31804829835891724,0.04265330359339714,0.13865350186824799,0.21679896116256714,0.1488785445690155,0.000423318037064746,0.05072890594601631,-0.09671031683683395,0.030343960970640182,0.09254597127437592,-0.019745873287320137,-0.06258264929056168,0.0687098279595375,0.08358673751354218,0.03708129748702049,-0.15996041893959045,0.03206871449947357,0.0537116602063179,0.01672798953950405,-0.17738284170627594,0.0435279905796051,0.08455535024404526,0.08868720382452011,-0.07500691711902618,-0.05027661845088005,0.035032905638217926,0.033296309411525726,0.07869215309619904,-0.05205731466412544,-0.010825041681528091,-0.03203941881656647,0.1316128671169281,-0.020290274173021317,0.007073196582496166,-0.0015720428200438619,-0.08170037716627121,0.09190405905246735,-0.048877838999032974,0.014129064045846462,-0.055715277791023254,0.016056625172495842,0.2684447467327118,-0.20197591185569763,0.04009333997964859,0.06944026798009872,0.11507057398557663,-0.16029872000217438,0.056639283895492554,0.07551328092813492,-0.03336126729846001,-0.2549152672290802,0.05392487719655037,0.07596287876367569,-0.12853547930717468,-0.33184248208999634,0.08787056803703308,-0.012036282569169998,-0.3033416271209717,-0.2603573799133301,0.10896826535463333,0.0030032265931367874,-0.37679025530815125,-0.07111231982707977,0.02678956463932991,-0.025796091184020042,-0.27903813123703003,-0.058139294385910034,-0.1315670758485794,-0.027405787259340286,-0.191837877035141,-0.019475657492876053,0.00037085864460095763,0.07590007036924362,0.03605718910694122,0.12375656515359879,0.02871844917535782,0.046335406601428986,0.05693570524454117,0.047219932079315186,0.024936426430940628,0.03548625111579895,0.14911411702632904,0.07576639950275421,-0.033710382878780365,0.053992610424757004,0.15041875839233398,-0.019163522869348526,-0.014059571549296379,0.03334813565015793,0.31653016805648804,-0.017401106655597687,0.05640710890293121,0.014907190576195717,0.35381361842155457,0.014500454999506474,0.027007542550563812,0.03432959318161011,0.2661035656929016,-0.06242697313427925,0.04637903720140457,0.008059953339397907,0.2504749000072479,-0.14375193417072296,-0.11103944480419159,0.090162493288517,-0.09799472242593765,-0.12062440812587738,-0.17542949318885803,0.056775156408548355,-0.06400231271982193,-0.04858362674713135,-0.15417826175689697,0.029420368373394012,-0.0554492250084877,-0.10224279016256332,0.0006432574009522796,0.010403675027191639,-0.1462763100862503,-0.10660767555236816,0.03796197474002838,-0.007742687128484249,0.01596202701330185,-0.12247788906097412,-0.01483313087373972,0.005117831286042929,0.01783021353185177,-0.04951699450612068,-0.08438372611999512,0.017723169177770615,0.09294776618480682,0.009456650353968143,-0.17157551646232605,-0.034301694482564926,0.08617556095123291,-0.052724096924066544,0.04179109260439873,0.010285940021276474,0.11723287403583527,0.1888415813446045,0.04108777269721031,0.059288837015628815,0.07997765392065048,0.11415955424308777,-0.196188285946846,0.01915629953145981,0.00791538879275322,0.10862472653388977,-0.26560336351394653,-0.03125618025660515,-0.09709141403436661,0.03123425878584385,-0.29330357909202576,-0.1405816525220871,-0.014866557903587818,0.053224947303533554,-0.20906154811382294,-0.05314667150378227,-0.03898102045059204,0.09179504960775375,-0.12009542435407639,-0.06777599453926086,-0.08340711146593094,0.08170341700315475,0.17312267422676086,-0.0006859717541374266,-0.06788460165262222,0.09514664113521576,-0.09966929256916046,-0.0050561572425067425,0.0052261981181800365,-0.029263248667120934,-0.0951068252325058,0.04194338247179985,-0.03774210065603256,-0.017424169927835464,-0.11393123120069504,0.058751873672008514,-0.058746546506881714,0.022484760731458664,0.054052527993917465,0.04864853248000145,-0.007199633866548538,-0.03791099786758423,0.25260797142982483,-0.0018991733668372035,-0.05021851509809494,-0.1293606162071228,0.10884647816419601,-0.09601779282093048,0.026921993121504784,-0.07509471476078033,-0.09478506445884705,-0.19690507650375366,0.010334344580769539,-0.018869834020733833,-0.1375967264175415,-0.16832637786865234,0.09782180935144424,0.02551792562007904,0.05583762377500534,-0.00626791175454855,0.28029167652130127,-0.039273589849472046,0.058936867862939835,-0.0027180600445717573,0.06178830936551094,-0.12150237709283829,-0.0074237496592104435,-0.0004189276951365173,0.22054778039455414,-0.13493461906909943,-0.0038093815091997385,-0.04426009953022003,0.148955300450325,-0.11449403315782547,0.10516589134931564,0.0013290246715769172,-0.08693511039018631,-0.15498952567577362,0.1333736777305603,-0.02496039681136608,-0.15112461149692535,-0.05973439663648605,0.030830014497041702,-0.002326661953702569,-0.17384541034698486,-0.07205700129270554,0.3394445776939392,-0.009257962927222252,-0.22083988785743713,-0.06149053946137428,-0.24636046588420868,0.007309577893465757,0.008006216026842594,-0.15109990537166595,-0.10383258014917374,0.0031899965833872557,0.0020427003037184477,-0.04155775532126427,-0.047451168298721313,0.010021595284342766,-0.08659907430410385,-0.08206290751695633,-0.03978452831506729,-0.037482522428035736,-0.13823622465133667,-0.09991481155157089,-0.19793477654457092,-0.05171767622232437,-0.13013619184494019,-0.03223838284611702,